tree
version=v3
num_class=3
num_tree_per_iteration=3
label_index=0
max_feature_idx=23
objective=multiclass num_class:3
feature_names=Column_0 Column_1 Column_2 Column_3 Column_4 Column_5 Column_6 Column_7 Column_8 Column_9 Column_10 Column_11 Column_12 Column_13 Column_14 Column_15 Column_16 Column_17 Column_18 Column_19 Column_20 Column_21 Column_22 Column_23
feature_infos=[-5.81640625:-1.5673828125] [1.287109375:6.87109375] [-0.1922607421875:0.2037353515625] [0.66552734375:1.3779296875] [-23.109375:-1.67578125] [1.078125:30.453125] [-0.9658203125:0.08062744140625] [0.5947265625:8.5546875] [-6.05078125:-1.0048828125] [0.7255859375:10.046875] [-0.158935546875:1.0634765625] [0.423828125:2.96484375] [-2.642578125:-0.533203125] [0.472412109375:3.873046875] [-0.09698486328125:0.01183319091796875] [0.27099609375:1.24609375] [-1.373046875:-0.367431640625] [0.490234375:1.298828125] [-0.0226593017578125:0.02044677734375] [0.2032470703125:0.45458984375] [-0.658203125:-0.168212890625] [0.2093505859375:0.5771484375] [-0.034332275390625:0.005298614501953125] [0.076904296875:0.2298583984375]
tree_sizes=324 325 322 330 331 329 331 330 329 331 330 330 330 332 330 330 331 331 332 332 330 332 331 332 330 332 332 331 330 331 331 331 331 330 331 330 331 331 330 328 333 331 332 331 330 330 330 332 332 333 330 330 331 330 329 331 331 331 331 331 330 332 329 332 330 332 331 331 331 330 332 330 330 330 330 330 332 332 331 332 331 332 334 331 333 331 331 331 333 330 330 331 330 332 330 331 329 332 331 330 335 330 330 334 332 334 337 333 334 334 334 332 334 331 332 334 333 332 335 334 333 333 333 333 334 330 333 336 334 334 332 333 331 335 333 334 336 334 334 335 330 333 336 333 334 334 332 334 333 333 336 337 330 331 335 334 335 335 333 335 338 335 335 335 334 335 336 335 336 337 336 335 335 334 334 336 334 336 336 335 336 336 334 332 338 334 335 337 334 336 335 333 336 339 332 336 333 334 335 336 334 334 333 334 334 339 334 336 335 334 337 338 335 336 336 336 337 340 337 338 336 335 336 336 337 335 336 336 336 340 336 336 337 336 335 337 335 337 337 335 338 337 337 335 337 335 338 339 335 336 335 336 337 340 333 336 339 338 337 337 336 337 337 336 338 338 337 336 339 338 339 340 336 338 337 336 337 334 336 341 337 338 337 341 338 337 338 337 339 337 337 338 338 339 340 341 338 339 339 333

Tree=0
num_leaves=2
num_cat=0
split_feature=1
split_gain=15.4286
threshold=2.5341796875000004
decision_type=2
left_child=-1
right_child=-2
leaf_value=-1.0021837150841919 -1.1736122903444903
leaf_weight=9.3333334028720873 12.000000089406965
leaf_count=21 27
internal_value=0
internal_weight=0
internal_count=48
shrinkage=1


Tree=1
num_leaves=2
num_cat=0
split_feature=3
split_gain=15.4286
threshold=0.96118164062500011
decision_type=2
left_child=-1
right_child=-2
leaf_value=-1.1736122903444903 -1.0021837150841919
leaf_weight=12.000000089406969 9.3333334028720838
leaf_count=27 21
internal_value=0
internal_weight=0
internal_count=48
shrinkage=1


Tree=2
num_leaves=2
num_cat=0
split_feature=5
split_gain=16.8
threshold=2.5732421875000004
decision_type=2
left_child=-1
right_child=-2
leaf_value=-1.1736122903444903 -0.99361228632117693
leaf_weight=12.444444537162783 8.8888889551162702
leaf_count=28 20
internal_value=0
internal_weight=0
internal_count=48
shrinkage=1


Tree=3
num_leaves=2
num_cat=0
split_feature=15
split_gain=13.9091
threshold=0.70043945312500011
decision_type=2
left_child=-1
right_child=-2
leaf_value=0.089268386583368262 -0.07331094471427417
leaf_weight=9.5799861550331133 11.675377249717711
leaf_count=21 27
internal_value=0
internal_weight=0
internal_count=48
shrinkage=0.1


Tree=4
num_leaves=2
num_cat=0
split_feature=19
split_gain=13.9091
threshold=0.36743164062500006
decision_type=2
left_child=-1
right_child=-2
leaf_value=-0.073310944714274143 0.089268386583368289
leaf_weight=11.675377249717714 9.5799861550331098
leaf_count=27 21
internal_value=0
internal_weight=0
internal_count=48
shrinkage=0.1


Tree=5
num_leaves=2
num_cat=0
split_feature=5
split_gain=14.8089
threshold=2.5732421875000004
decision_type=2
left_child=-1
right_child=-2
leaf_value=-0.072862371566514109 0.095532615030881271
leaf_weight=12.057929515838625 9.2120933532714826
leaf_count=28 20
internal_value=0
internal_weight=0
internal_count=48
shrinkage=0.1


Tree=6
num_leaves=2
num_cat=0
split_feature=23
split_gain=12.6292
threshold=0.13684082031250003
decision_type=2
left_child=-1
right_child=-2
leaf_value=0.083564478657072228 -0.071665423210258067
leaf_weight=9.7361680865287799 11.352162867784498
leaf_count=21 27
internal_value=0
internal_weight=0
internal_count=48
shrinkage=0.1


Tree=7
num_leaves=2
num_cat=0
split_feature=19
split_gain=12.2818
threshold=0.36743164062500006
decision_type=2
left_child=-1
right_child=-2
leaf_value=-0.071248589072849478 0.08174124519779119
leaf_weight=11.267063498497011 9.8212674558162671
leaf_count=27 21
internal_value=0
internal_weight=0
internal_count=48
shrinkage=0.1


Tree=8
num_leaves=2
num_cat=0
split_feature=5
split_gain=12.7512
threshold=2.5732421875000004
decision_type=2
left_child=-1
right_child=-2
leaf_value=-0.070573007157806941 0.085720572200238834
leaf_weight=11.561023175716402 9.5171515345573408
leaf_count=28 20
internal_value=0
internal_weight=0
internal_count=48
shrinkage=0.1


Tree=9
num_leaves=2
num_cat=0
split_feature=12
split_gain=11.5906
threshold=-1.9614257812499998
decision_type=2
left_child=-1
right_child=-2
leaf_value=-0.070254201737791386 0.079219523768634226
leaf_weight=11.028152078390123 9.7957248687744123
leaf_count=27 21
internal_value=0
internal_weight=0
internal_count=48
shrinkage=0.1


Tree=10
num_leaves=2
num_cat=0
split_feature=3
split_gain=10.9609
threshold=0.96118164062500011
decision_type=2
left_child=-1
right_child=-2
leaf_value=-0.069608764874367166 0.075724870763708596
leaf_weight=10.844952970743181 9.950972914695738
leaf_count=27 21
internal_value=0
internal_weight=0
internal_count=48
shrinkage=0.1


Tree=11
num_leaves=2
num_cat=0
split_feature=4
split_gain=11.4357
threshold=-2.5751953124999996
decision_type=2
left_child=-1
right_child=-2
leaf_value=0.078240932688859385 -0.070333391482606228
leaf_weight=9.8382440507411975 10.94251775741577
leaf_count=21 27
internal_value=0
internal_weight=0
internal_count=48
shrinkage=0.1


Tree=12
num_leaves=2
num_cat=0
split_feature=13
split_gain=10.4429
threshold=1.6650390625000002
decision_type=2
left_child=-1
right_child=-2
leaf_value=0.074251072563486606 -0.068711399726119365
leaf_weight=9.8321906030178088 10.63751509785652
leaf_count=21 27
internal_value=0
internal_weight=0
internal_count=48
shrinkage=0.1


Tree=13
num_leaves=2
num_cat=0
split_feature=19
split_gain=9.74034
threshold=0.36743164062500006
decision_type=2
left_child=-1
right_child=-2
leaf_value=-0.067915000694300245 0.070149607913350939
leaf_weight=10.396683990955355 10.048688054084776
leaf_count=27 21
internal_value=0
internal_weight=0
internal_count=48
shrinkage=0.1


Tree=14
num_leaves=2
num_cat=0
split_feature=13
split_gain=10.5512
threshold=1.8198242187500002
decision_type=2
left_child=-1
right_child=-2
leaf_value=-0.069027552338618792 0.074713957063159836
leaf_weight=10.61859315633774 9.8378223180770856
leaf_count=27 21
internal_value=0
internal_weight=0
internal_count=48
shrinkage=0.1


Tree=15
num_leaves=2
num_cat=0
split_feature=9
split_gain=9.40075
threshold=5.4511718750000009
decision_type=2
left_child=-1
right_child=-2
leaf_value=0.069772515436065205 -0.067224824995782403
leaf_weight=9.8270020484924334 10.215947329998015
leaf_count=21 27
internal_value=0
internal_weight=0
internal_count=48
shrinkage=0.1


Tree=16
num_leaves=2
num_cat=0
split_feature=3
split_gain=9.02226
threshold=0.96118164062500011
decision_type=2
left_child=-1
right_child=-2
leaf_value=-0.066936532839946453 0.067190942660933464
leaf_weight=10.025186806917192 10.035224854946135
leaf_count=27 21
internal_value=0
internal_weight=0
internal_count=48
shrinkage=0.1


Tree=17
num_leaves=2
num_cat=0
split_feature=19
split_gain=9.45079
threshold=0.34606933593750006
decision_type=2
left_child=-1
right_child=-2
leaf_value=0.070019679318940653 -0.067463617659717798
leaf_weight=9.8026380538940447 10.20538145303726
leaf_count=21 27
internal_value=0
internal_weight=0
internal_count=48
shrinkage=0.1


Tree=18
num_leaves=2
num_cat=0
split_feature=23
split_gain=8.49929
threshold=0.13684082031250003
decision_type=2
left_child=-1
right_child=-2
leaf_value=0.065913587807838583 -0.065889480277793511
leaf_weight=9.7759084105491656 9.7941431403160077
leaf_count=21 27
internal_value=0
internal_weight=0
internal_count=48
shrinkage=0.1


Tree=19
num_leaves=2
num_cat=0
split_feature=19
split_gain=7.99171
threshold=0.36743164062500006
decision_type=2
left_child=-1
right_child=-2
leaf_value=-0.065426458153817868 0.062370016073746426
leaf_weight=9.5352655351161975 10.051554501056669
leaf_count=27 21
internal_value=0
internal_weight=0
internal_count=48
shrinkage=0.1


Tree=20
num_leaves=2
num_cat=0
split_feature=5
split_gain=8.46224
threshold=2.5732421875000004
decision_type=2
left_child=-1
right_child=-2
leaf_value=-0.065040424829000729 0.066653284480893069
leaf_weight=9.8958394229412097 9.6250084042549116
leaf_count=28 20
internal_value=0
internal_weight=0
internal_count=48
shrinkage=0.1


Tree=21
num_leaves=2
num_cat=0
split_feature=6
split_gain=7.80682
threshold=-0.11914062499999999
decision_type=2
left_child=-1
right_child=-2
leaf_value=-0.064759302522574808 0.063329462199345141
leaf_weight=9.4017128646373767 9.6343393027782422
leaf_count=27 21
internal_value=0
internal_weight=0
internal_count=48
shrinkage=0.1


Tree=22
num_leaves=2
num_cat=0
split_feature=3
split_gain=7.30528
threshold=0.96118164062500011
decision_type=2
left_child=-1
right_child=-2
leaf_value=-0.064554619330419297 0.059494591302530854
leaf_weight=9.1153228282928485 9.9069198966026288
leaf_count=27 21
internal_value=0
internal_weight=0
internal_count=48
shrinkage=0.1


Tree=23
num_leaves=2
num_cat=0
split_feature=15
split_gain=7.75559
threshold=0.73022460937500011
decision_type=2
left_child=-1
right_child=-2
leaf_value=-0.065025353348976245 0.062921109355282279
leaf_weight=9.3390256762504595 9.6154108643531782
leaf_count=27 21
internal_value=0
internal_weight=0
internal_count=48
shrinkage=0.1


Tree=24
num_leaves=2
num_cat=0
split_feature=8
split_gain=7.09014
threshold=-2.5673828124999996
decision_type=2
left_child=-1
right_child=-2
leaf_value=-0.063760304717483604 0.060396126004103559
leaf_weight=8.988122910261156 9.4202763736247999
leaf_count=27 21
internal_value=0
internal_weight=0
internal_count=48
shrinkage=0.1


Tree=25
num_leaves=2
num_cat=0
split_feature=19
split_gain=6.53798
threshold=0.36743164062500006
decision_type=2
left_child=-1
right_child=-2
leaf_value=-0.063301911588436455 0.055893955636819384
leaf_weight=8.6418963670730609 9.8430806100368482
leaf_count=27 21
internal_value=0
internal_weight=0
internal_count=48
shrinkage=0.1


Tree=26
num_leaves=2
num_cat=0
split_feature=19
split_gain=7.16325
threshold=0.34606933593750006
decision_type=2
left_child=-1
right_child=-2
leaf_value=0.060774323998936355 -0.064013251059892431
leaf_weight=9.4539574086666125 8.9597192704677564
leaf_count=21 27
internal_value=0
internal_weight=0
internal_count=48
shrinkage=0.1


Tree=27
num_leaves=2
num_cat=0
split_feature=20
split_gain=6.5732
threshold=-0.33740234374999994
decision_type=2
left_child=-1
right_child=-2
leaf_value=-0.062775145329388132 0.05863905930130358
leaf_weight=8.6093197762966174 9.2496474981307966
leaf_count=27 21
internal_value=0
internal_weight=0
internal_count=48
shrinkage=0.1


Tree=28
num_leaves=2
num_cat=0
split_feature=3
split_gain=6.0208
threshold=0.96118164062500011
decision_type=2
left_child=-1
right_child=-2
leaf_value=-0.062712067100364949 0.053717379475907948
leaf_weight=8.2364998757839221 9.6395716667175275
leaf_count=27 21
internal_value=0
internal_weight=0
internal_count=48
shrinkage=0.1


Tree=29
num_leaves=2
num_cat=0
split_feature=4
split_gain=6.48481
threshold=-2.5751953124999996
decision_type=2
left_child=-1
right_child=-2
leaf_value=0.057988654550078601 -0.062935851913517665
leaf_weight=9.2189782261848467 8.5455279946327192
leaf_count=21 27
internal_value=0
internal_weight=0
internal_count=48
shrinkage=0.1


Tree=30
num_leaves=2
num_cat=0
split_feature=12
split_gain=5.9887
threshold=-1.9614257812499998
decision_type=2
left_child=-1
right_child=-2
leaf_value=-0.061845869731092767 0.056294775956729319
leaf_weight=8.2080054581165331 8.9906244277954084
leaf_count=27 21
internal_value=0
internal_weight=0
internal_count=48
shrinkage=0.1


Tree=31
num_leaves=2
num_cat=0
split_feature=3
split_gain=5.33008
threshold=0.96118164062500011
decision_type=2
left_child=-1
right_child=-2
leaf_value=-0.061587467887996232 0.050194777100544596
leaf_weight=7.7505797147750881 9.4870429933071119
leaf_count=27 21
internal_value=0
internal_weight=0
internal_count=48
shrinkage=0.1


Tree=32
num_leaves=2
num_cat=0
split_feature=13
split_gain=5.99374
threshold=1.8198242187500002
decision_type=2
left_child=-1
right_child=-2
leaf_value=-0.062005294475303036 0.056231429070971152
leaf_weight=8.1553145200014132 9.0397360026836378
leaf_count=27 21
internal_value=0
internal_weight=0
internal_count=48
shrinkage=0.1


Tree=33
num_leaves=2
num_cat=0
split_feature=13
split_gain=5.4409
threshold=1.6650390625000002
decision_type=2
left_child=-1
right_child=-2
leaf_value=0.054004662098753445 -0.061048723794674437
leaf_weight=8.6870331466197985 7.8016617596149436
leaf_count=21 27
internal_value=0
internal_weight=0
internal_count=48
shrinkage=0.1


Tree=34
num_leaves=2
num_cat=0
split_feature=19
split_gain=4.98507
threshold=0.36743164062500006
decision_type=2
left_child=-1
right_child=-2
leaf_value=-0.061121440338113391 0.049037098040100507
leaf_weight=7.392607823014262 9.2460364103317243
leaf_count=27 21
internal_value=0
internal_weight=0
internal_count=48
shrinkage=0.1


Tree=35
num_leaves=2
num_cat=0
split_feature=5
split_gain=5.54803
threshold=2.5732421875000004
decision_type=2
left_child=-1
right_child=-2
leaf_value=-0.060523686842204306 0.055318167553262437
leaf_weight=7.8692900985479382 8.7108398675918561
leaf_count=28 20
internal_value=0
internal_weight=0
internal_count=48
shrinkage=0.1


Tree=36
num_leaves=2
num_cat=0
split_feature=20
split_gain=4.96527
threshold=-0.33740234374999994
decision_type=2
left_child=-1
right_child=-2
leaf_value=-0.06016164035968885 0.05207278282873206
leaf_weight=7.3844934999942788 8.4548981785774213
leaf_count=27 21
internal_value=0
internal_weight=0
internal_count=48
shrinkage=0.1


Tree=37
num_leaves=2
num_cat=0
split_feature=2
split_gain=4.6843
threshold=0.0064210891723632821
decision_type=2
left_child=-1
right_child=-2
leaf_value=-0.06228495080804617 0.047004052012852945
leaf_weight=6.8522308319807079 9.1706794798374158
leaf_count=24 24
internal_value=0
internal_weight=0
internal_count=48
shrinkage=0.1


Tree=38
num_leaves=2
num_cat=0
split_feature=19
split_gain=5.06478
threshold=0.34606933593750006
decision_type=2
left_child=-1
right_child=-2
leaf_value=0.0527970167434113 -0.060530526449268512
leaf_weight=8.4619927406311017 7.3854146599769601
leaf_count=21 27
internal_value=0
internal_weight=0
internal_count=48
shrinkage=0.1


Tree=39
num_leaves=2
num_cat=0
split_feature=9
split_gain=4.60981
threshold=5.4511718750000009
decision_type=2
left_child=-1
right_child=-2
leaf_value=0.05084059724446182 -0.059534971730575176
leaf_weight=8.193528547883032 7.0307739228010186
leaf_count=21 27
internal_value=0
internal_weight=0
internal_count=48
shrinkage=0.1


Tree=40
num_leaves=2
num_cat=0
split_feature=2
split_gain=4.13512
threshold=0.0064210891723632821
decision_type=2
left_child=-1
right_child=-2
leaf_value=-0.061200013890067489 0.043953227691871842
leaf_weight=6.4354680627584466 8.9278687536716443
leaf_count=24 24
internal_value=0
internal_weight=0
internal_count=48
shrinkage=0.1


Tree=41
num_leaves=2
num_cat=0
split_feature=4
split_gain=4.71587
threshold=-2.5751953124999996
decision_type=2
left_child=-1
right_child=-2
leaf_value=0.051696875010327561 -0.059830933460367768
leaf_weight=8.2152552306652051 7.0406373739242563
leaf_count=21 27
internal_value=0
internal_weight=0
internal_count=48
shrinkage=0.1


Tree=42
num_leaves=2
num_cat=0
split_feature=6
split_gain=4.25819
threshold=-0.11914062499999999
decision_type=2
left_child=-1
right_child=-2
leaf_value=-0.058884631979044658 0.049614421062327045
leaf_weight=6.6914721131324768 7.8732398450374603
leaf_count=27 21
internal_value=0
internal_weight=0
internal_count=48
shrinkage=0.1


Tree=43
num_leaves=2
num_cat=0
split_feature=19
split_gain=3.88656
threshold=0.36743164062500006
decision_type=2
left_child=-1
right_child=-2
leaf_value=-0.058983492200113466 0.04453483627047311
leaf_weight=6.3532865643501291 8.4515174627304059
leaf_count=27 21
internal_value=0
internal_weight=0
internal_count=48
shrinkage=0.1


Tree=44
num_leaves=2
num_cat=0
split_feature=9
split_gain=4.29931
threshold=5.8457031250000009
decision_type=2
left_child=-1
right_child=-2
leaf_value=-0.059061322747993916 0.049887379852106777
leaf_weight=6.6679457873106003 7.9292279779911041
leaf_count=27 21
internal_value=0
internal_weight=0
internal_count=48
shrinkage=0.1


Tree=45
num_leaves=2
num_cat=0
split_feature=13
split_gain=3.92082
threshold=1.6650390625000002
decision_type=2
left_child=-1
right_child=-2
leaf_value=0.048321945866632438 -0.05828093328339215
leaf_weight=7.5822978466749191 6.3309044390916824
leaf_count=21 27
internal_value=0
internal_weight=0
internal_count=48
shrinkage=0.1


Tree=46
num_leaves=2
num_cat=0
split_feature=3
split_gain=3.60686
threshold=0.96118164062500011
decision_type=2
left_child=-1
right_child=-2
leaf_value=-0.058546479336021653 0.043433827569624363
leaf_weight=6.0147878378629693 8.191193759441374
leaf_count=27 21
internal_value=0
internal_weight=0
internal_count=48
shrinkage=0.1


Tree=47
num_leaves=2
num_cat=0
split_feature=19
split_gain=3.94683
threshold=0.34606933593750006
decision_type=2
left_child=-1
right_child=-2
leaf_value=0.048434020874266209 -0.058510005454718884
leaf_weight=7.6079130470752716 6.3157134801149368
leaf_count=21 27
internal_value=0
internal_weight=0
internal_count=48
shrinkage=0.1


Tree=48
num_leaves=2
num_cat=0
split_feature=23
split_gain=3.62626
threshold=0.13684082031250003
decision_type=2
left_child=-1
right_child=-2
leaf_value=0.047237267621827783 -0.057758547074253264
leaf_weight=7.2788541615009308 6.0015509277582169
leaf_count=21 27
internal_value=0
internal_weight=0
internal_count=48
shrinkage=0.1


Tree=49
num_leaves=2
num_cat=0
split_feature=2
split_gain=3.28663
threshold=0.0064210891723632821
decision_type=2
left_child=-1
right_child=-2
leaf_value=-0.059366681723734598 0.040836198768003831
leaf_weight=5.5039470493793496 8.0768076479434949
leaf_count=24 24
internal_value=0
internal_weight=0
internal_count=48
shrinkage=0.1


Tree=50
num_leaves=2
num_cat=0
split_feature=7
split_gain=3.6824
threshold=0.87695312500000011
decision_type=2
left_child=-1
right_child=-2
leaf_value=-0.057901709434761875 0.047867118954234927
leaf_weight=6.0149658024311066 7.2703236192464828
leaf_count=27 21
internal_value=0
internal_weight=0
internal_count=48
shrinkage=0.1


Tree=51
num_leaves=2
num_cat=0
split_feature=12
split_gain=3.34312
threshold=-1.9614257812499998
decision_type=2
left_child=-1
right_child=-2
leaf_value=-0.057213640389434939 0.046188962735783629
leaf_weight=5.688876748085022 6.942385658621788
leaf_count=27 21
internal_value=0
internal_weight=0
internal_count=48
shrinkage=0.1


Tree=52
num_leaves=2
num_cat=0
split_feature=19
split_gain=3.05878
threshold=0.36743164062500006
decision_type=2
left_child=-1
right_child=-2
leaf_value=-0.057537674284132367 0.040995313097939218
leaf_weight=5.382480800151825 7.5977480411529541
leaf_count=27 21
internal_value=0
internal_weight=0
internal_count=48
shrinkage=0.1


Tree=53
num_leaves=2
num_cat=0
split_feature=5
split_gain=3.37332
threshold=2.5732421875000004
decision_type=2
left_child=-1
right_child=-2
leaf_value=-0.056892166051474485 0.046687087133195533
leaf_weight=5.7004528939723969 7.0116656124591827
leaf_count=28 20
internal_value=0
internal_weight=0
internal_count=48
shrinkage=0.1


Tree=54
num_leaves=2
num_cat=0
split_feature=1
split_gain=3.10902
threshold=2.5341796875000004
decision_type=2
left_child=-1
right_child=-2
leaf_value=0.045492844466915254 -0.056720266743504444
leaf_weight=6.6629061251878738 5.377656415104866
leaf_count=21 27
internal_value=0
internal_weight=0
internal_count=48
shrinkage=0.1


Tree=55
num_leaves=2
num_cat=0
split_feature=3
split_gain=2.81631
threshold=0.96118164062500011
decision_type=2
left_child=-1
right_child=-2
leaf_value=-0.057075642374075322 0.039930502716855373
leaf_weight=5.0730567425489426 7.2986339330673218
leaf_count=27 21
internal_value=0
internal_weight=0
internal_count=48
shrinkage=0.1


Tree=56
num_leaves=2
num_cat=0
split_feature=13
split_gain=3.11631
threshold=1.8198242187500002
decision_type=2
left_child=-1
right_child=-2
leaf_value=-0.056973044469017547 0.045369452791595592
leaf_weight=5.3444699645042419 6.7117434591054916
leaf_count=27 21
internal_value=0
internal_weight=0
internal_count=48
shrinkage=0.1


Tree=57
num_leaves=2
num_cat=0
split_feature=8
split_gain=2.84004
threshold=-2.5673828124999996
decision_type=2
left_child=-1
right_child=-2
leaf_value=-0.056337771141168252 0.044173206494779911
leaf_weight=5.0670870766043663 6.3146070688962936
leaf_count=27 21
internal_value=0
internal_weight=0
internal_count=48
shrinkage=0.1


Tree=58
num_leaves=2
num_cat=0
split_feature=19
split_gain=2.58364
threshold=0.36743164062500006
decision_type=2
left_child=-1
right_child=-2
leaf_value=-0.05672421733210542 0.038654239247024817
leaf_weight=4.7645732909440994 7.0313951373100281
leaf_count=27 21
internal_value=0
internal_weight=0
internal_count=48
shrinkage=0.1


Tree=59
num_leaves=2
num_cat=0
split_feature=19
split_gain=2.9576
threshold=0.34606933593750006
decision_type=2
left_child=-1
right_child=-2
leaf_value=0.045389096888782843 -0.056587055009360593
leaf_weight=6.4514976441860199 5.0863617807626724
leaf_count=21 27
internal_value=0
internal_weight=0
internal_count=48
shrinkage=0.1


Tree=60
num_leaves=2
num_cat=0
split_feature=15
split_gain=2.66804
threshold=0.70043945312500011
decision_type=2
left_child=-1
right_child=-2
leaf_value=0.043837280714478677 -0.055910251570229864
leaf_weight=6.08756023645401 4.7927621752023697
leaf_count=21 27
internal_value=0
internal_weight=0
internal_count=48
shrinkage=0.1


Tree=61
num_leaves=2
num_cat=0
split_feature=2
split_gain=2.43051
threshold=0.0064210891723632821
decision_type=2
left_child=-1
right_child=-2
leaf_value=-0.05754990544292006 0.037650803197714931
leaf_weight=4.4339257478713989 6.7862097769975662
leaf_count=24 24
internal_value=0
internal_weight=0
internal_count=48
shrinkage=0.1


Tree=62
num_leaves=2
num_cat=0
split_feature=4
split_gain=2.7112
threshold=-2.5751953124999996
decision_type=2
left_child=-1
right_child=-2
leaf_value=0.044297219373455002 -0.056130266906106951
leaf_weight=6.104128509759903 4.8036062866449356
leaf_count=21 27
internal_value=0
internal_weight=0
internal_count=48
shrinkage=0.1


Tree=63
num_leaves=2
num_cat=0
split_feature=20
split_gain=2.47901
threshold=-0.33740234374999994
decision_type=2
left_child=-1
right_child=-2
leaf_value=-0.05557086265407353 0.043202400437455817
leaf_weight=4.5349478721618652 5.7790052443742752
leaf_count=27 21
internal_value=0
internal_weight=0
internal_count=48
shrinkage=0.1


Tree=64
num_leaves=2
num_cat=0
split_feature=3
split_gain=2.22633
threshold=0.96118164062500011
decision_type=2
left_child=-1
right_child=-2
leaf_value=-0.055916077881820007 0.037211203154748566
leaf_weight=4.257599264383316 6.4650668501853943
leaf_count=27 21
internal_value=0
internal_weight=0
internal_count=48
shrinkage=0.1


Tree=65
num_leaves=2
num_cat=0
split_feature=19
split_gain=2.46412
threshold=0.34606933593750006
decision_type=2
left_child=-1
right_child=-2
leaf_value=0.042811661383008529 -0.055665016310014637
leaf_weight=5.8426258563995361 4.4964167848229408
leaf_count=21 27
internal_value=0
internal_weight=0
internal_count=48
shrinkage=0.1


Tree=66
num_leaves=2
num_cat=0
split_feature=6
split_gain=2.2808
threshold=-0.11914062499999999
decision_type=2
left_child=-1
right_child=-2
leaf_value=-0.055146195029997028 0.042222580009254052
leaf_weight=4.2683136463165283 5.5130093842744827
leaf_count=27 21
internal_value=0
internal_weight=0
internal_count=48
shrinkage=0.1


Tree=67
num_leaves=2
num_cat=0
split_feature=19
split_gain=2.0427
threshold=0.36743164062500006
decision_type=2
left_child=-1
right_child=-2
leaf_value=-0.055746839539190664 0.036079456210816034
leaf_weight=4.0021800920367241 6.1377213001251221
leaf_count=27 21
internal_value=0
internal_weight=0
internal_count=48
shrinkage=0.1


Tree=68
num_leaves=2
num_cat=0
split_feature=15
split_gain=2.33203
threshold=0.73022460937500011
decision_type=2
left_child=-1
right_child=-2
leaf_value=-0.055295206366215682 0.042822470197999382
leaf_weight=4.2649545222520828 5.606929287314415
leaf_count=27 21
internal_value=0
internal_weight=0
internal_count=48
shrinkage=0.1


Tree=69
num_leaves=2
num_cat=0
split_feature=9
split_gain=2.12833
threshold=5.4511718750000009
decision_type=2
left_child=-1
right_child=-2
leaf_value=0.041753305710747063 -0.054900917068089042
leaf_weight=5.2513169795274734 4.0240141004323959
leaf_count=21 27
internal_value=0
internal_weight=0
internal_count=48
shrinkage=0.1


Tree=70
num_leaves=2
num_cat=0
split_feature=2
split_gain=1.93427
threshold=0.0064210891723632821
decision_type=2
left_child=-1
right_child=-2
leaf_value=-0.056366961204666305 0.035509438544903009
leaf_weight=3.734751783311367 5.9294238239526749
leaf_count=24 24
internal_value=0
internal_weight=0
internal_count=48
shrinkage=0.1


Tree=71
num_leaves=2
num_cat=0
split_feature=5
split_gain=2.15987
threshold=2.5732421875000004
decision_type=2
left_child=-1
right_child=-2
leaf_value=-0.054707570007523347 0.042357147619355842
leaf_weight=4.0544767379760742 5.2751166522502899
leaf_count=28 20
internal_value=0
internal_weight=0
internal_count=48
shrinkage=0.1


Tree=72
num_leaves=2
num_cat=0
split_feature=23
split_gain=1.9745
threshold=0.13684082031250003
decision_type=2
left_child=-1
right_child=-2
leaf_value=0.041186411321825774 -0.05458828153090714
leaf_weight=4.9701730906963348 3.7970570623874664
leaf_count=21 27
internal_value=0
internal_weight=0
internal_count=48
shrinkage=0.1


Tree=73
num_leaves=2
num_cat=0
split_feature=3
split_gain=1.76251
threshold=0.96118164062500011
decision_type=2
left_child=-1
right_child=-2
leaf_value=-0.05494968395572665 0.034895589078009492
leaf_weight=3.5567813813686371 5.6548572480678558
leaf_count=27 21
internal_value=0
internal_weight=0
internal_count=48
shrinkage=0.1


Tree=74
num_leaves=2
num_cat=0
split_feature=4
split_gain=1.99812
threshold=-2.5751953124999996
decision_type=2
left_child=-1
right_child=-2
leaf_value=0.041415249444791913 -0.05472355048202724
leaf_weight=5.0277937948703766 3.7925476655364037
leaf_count=21 27
internal_value=0
internal_weight=0
internal_count=48
shrinkage=0.1


Tree=75
num_leaves=2
num_cat=0
split_feature=1
split_gain=1.81853
threshold=2.5341796875000004
decision_type=2
left_child=-1
right_child=-2
leaf_value=0.040434856727990749 -0.054245903153392394
leaf_weight=4.6812412142753601 3.5799629762768745
leaf_count=21 27
internal_value=0
internal_weight=0
internal_count=48
shrinkage=0.1


Tree=76
num_leaves=2
num_cat=0
split_feature=19
split_gain=1.65572
threshold=0.36743164062500006
decision_type=2
left_child=-1
right_child=-2
leaf_value=-0.054960676514686516 0.034549032131665436
leaf_weight=3.3627153262495995 5.3613996654748917
leaf_count=27 21
internal_value=0
internal_weight=0
internal_count=48
shrinkage=0.1


Tree=77
num_leaves=2
num_cat=0
split_feature=19
split_gain=1.88172
threshold=0.34606933593750006
decision_type=2
left_child=-1
right_child=-2
leaf_value=0.041236449397186188 -0.054452296214296293
leaf_weight=4.8315401822328568 3.5762791335582733
leaf_count=21 27
internal_value=0
internal_weight=0
internal_count=48
shrinkage=0.1


Tree=78
num_leaves=2
num_cat=0
split_feature=13
split_gain=1.72633
threshold=1.6650390625000002
decision_type=2
left_child=-1
right_child=-2
leaf_value=0.040541313504983731 -0.054045177204999677
leaf_weight=4.4935572668910027 3.3817546516656876
leaf_count=21 27
internal_value=0
internal_weight=0
internal_count=48
shrinkage=0.1


Tree=79
num_leaves=2
num_cat=0
split_feature=2
split_gain=1.52736
threshold=0.0064210891723632821
decision_type=2
left_child=-1
right_child=-2
leaf_value=-0.055364684630143261 0.033386016733735473
leaf_weight=3.1289968565106392 5.099042646586895
leaf_count=24 24
internal_value=0
internal_weight=0
internal_count=48
shrinkage=0.1


Tree=80
num_leaves=2
num_cat=0
split_feature=13
split_gain=1.75242
threshold=1.8198242187500002
decision_type=2
left_child=-1
right_child=-2
leaf_value=-0.054173911143539213 0.040787846135642736
leaf_weight=3.3782732412219048 4.5750464200973511
leaf_count=27 21
internal_value=0
internal_weight=0
internal_count=48
shrinkage=0.1


Tree=81
num_leaves=2
num_cat=0
split_feature=12
split_gain=1.58555
threshold=-1.9614257812499998
decision_type=2
left_child=-1
right_child=-2
leaf_value=-0.053753454194619112 0.039695533586741577
leaf_weight=3.1785213798284531 4.2344734668731689
leaf_count=27 21
internal_value=0
internal_weight=0
internal_count=48
shrinkage=0.1


Tree=82
num_leaves=2
num_cat=0
split_feature=22
split_gain=1.42334
threshold=-0.0084209442138671858
decision_type=2
left_child=-1
right_child=-2
leaf_value=0.032899967513569682 -0.05507231171784556
leaf_weight=4.9189785122871399 2.9374187290668488
leaf_count=24 24
internal_value=0
internal_weight=0
internal_count=48
shrinkage=0.1


Tree=83
num_leaves=2
num_cat=0
split_feature=7
split_gain=1.62296
threshold=0.87695312500000011
decision_type=2
left_child=-1
right_child=-2
leaf_value=-0.053848507211665064 0.040223874845179391
leaf_weight=3.1825834438204765 4.3277877569198608
leaf_count=27 21
internal_value=0
internal_weight=0
internal_count=48
shrinkage=0.1


Tree=84
num_leaves=2
num_cat=0
split_feature=20
split_gain=1.45618
threshold=-0.33740234374999994
decision_type=2
left_child=-1
right_child=-2
leaf_value=-0.053556180544799131 0.038860581031303527
leaf_weight=2.9843009524047375 3.9771021008491516
leaf_count=27 21
internal_value=0
internal_weight=0
internal_count=48
shrinkage=0.1


Tree=85
num_leaves=2
num_cat=0
split_feature=19
split_gain=1.34025
threshold=0.36743164062500006
decision_type=2
left_child=-1
right_child=-2
leaf_value=-0.05418684682622682 0.033173524967966272
leaf_weight=2.8262009210884571 4.6381741166114807
leaf_count=27 21
internal_value=0
internal_weight=0
internal_count=48
shrinkage=0.1


Tree=86
num_leaves=2
num_cat=0
split_feature=19
split_gain=1.5154
threshold=0.34606933593750006
decision_type=2
left_child=-1
right_child=-2
leaf_value=0.039745600597088704 -0.053670625005257593
leaf_weight=4.1480665951967239 2.9869933985173702
leaf_count=21 27
internal_value=0
internal_weight=0
internal_count=48
shrinkage=0.1


Tree=87
num_leaves=2
num_cat=0
split_feature=6
split_gain=1.3754
threshold=-0.11914062499999999
decision_type=2
left_child=-1
right_child=-2
leaf_value=-0.053294147593118749 0.038851456857221925
leaf_weight=2.8118354864418507 3.8212280422449112
leaf_count=27 21
internal_value=0
internal_weight=0
internal_count=48
shrinkage=0.1


Tree=88
num_leaves=2
num_cat=0
split_feature=2
split_gain=1.23722
threshold=0.0064210891723632821
decision_type=2
left_child=-1
right_child=-2
leaf_value=-0.054529242626588176 0.032156907375758624
leaf_weight=2.6326063834130764 4.3952318280935287
leaf_count=24 24
internal_value=0
internal_weight=0
internal_count=48
shrinkage=0.1


Tree=89
num_leaves=2
num_cat=0
split_feature=5
split_gain=1.41637
threshold=2.5732421875000004
decision_type=2
left_child=-1
right_child=-2
leaf_value=-0.053227682840861545 0.039641065045893972
leaf_weight=2.8367392159998417 3.9001002013683319
leaf_count=28 20
internal_value=0
internal_weight=0
internal_count=48
shrinkage=0.1


Tree=90
num_leaves=2
num_cat=0
split_feature=8
split_gain=1.2829
threshold=-2.5673828124999996
decision_type=2
left_child=-1
right_child=-2
leaf_value=-0.053169084312214114 0.038519611438523879
leaf_weight=2.6482967212796211 3.6010619252920151
leaf_count=27 21
internal_value=0
internal_weight=0
internal_count=48
shrinkage=0.1


Tree=91
num_leaves=2
num_cat=0
split_feature=23
split_gain=1.14837
threshold=0.14288330078125003
decision_type=2
left_child=-1
right_child=-2
leaf_value=-0.053933891008034231 0.031851835003151689
leaf_weight=2.495984248816967 4.1632788255810738
leaf_count=24 24
internal_value=0
internal_weight=0
internal_count=48
shrinkage=0.1


Tree=92
num_leaves=2
num_cat=0
split_feature=9
split_gain=1.32883
threshold=5.8457031250000009
decision_type=2
left_child=-1
right_child=-2
leaf_value=-0.053247950649007371 0.039313650296898713
leaf_weight=2.6638802997767925 3.7125080823898315
leaf_count=27 21
internal_value=0
internal_weight=0
internal_count=48
shrinkage=0.1


Tree=93
num_leaves=2
num_cat=0
split_feature=20
split_gain=1.1712
threshold=-0.33740234374999994
decision_type=2
left_child=-1
right_child=-2
leaf_value=-0.052960234479064117 0.037560863275147134
leaf_weight=2.4811638183891773 3.3716500550508499
leaf_count=27 21
internal_value=0
internal_weight=0
internal_count=48
shrinkage=0.1


Tree=94
num_leaves=2
num_cat=0
split_feature=19
split_gain=1.08578
threshold=0.36743164062500006
decision_type=2
left_child=-1
right_child=-2
leaf_value=-0.053587114558718223 0.03196137929667061
leaf_weight=2.3684596717357635 3.971114918589592
leaf_count=27 21
internal_value=0
internal_weight=0
internal_count=48
shrinkage=0.1


Tree=95
num_leaves=2
num_cat=0
split_feature=4
split_gain=1.24134
threshold=-2.5751953124999996
decision_type=2
left_child=-1
right_child=-2
leaf_value=0.038974421247267993 -0.053067474362575189
leaf_weight=3.5318298414349556 2.5042361207306385
leaf_count=21 27
internal_value=0
internal_weight=0
internal_count=48
shrinkage=0.1


Tree=96
num_leaves=2
num_cat=0
split_feature=9
split_gain=1.1035
threshold=5.4511718750000009
decision_type=2
left_child=-1
right_child=-2
leaf_value=0.037531267414260563 -0.052799722180752268
leaf_weight=3.2103381082415581 2.3367564156651497
leaf_count=21 27
internal_value=0
internal_weight=0
internal_count=48
shrinkage=0.1


Tree=97
num_leaves=2
num_cat=0
split_feature=22
split_gain=1.0122
threshold=-0.0084209442138671858
decision_type=2
left_child=-1
right_child=-2
leaf_value=0.031283393773621861 -0.053935233657280507
leaf_weight=3.77752535790205 2.2087435647845268
leaf_count=24 24
internal_value=0
internal_weight=0
internal_count=48
shrinkage=0.1


Tree=98
num_leaves=2
num_cat=0
split_feature=19
split_gain=1.15296
threshold=0.34606933593750006
decision_type=2
left_child=-1
right_child=-2
leaf_value=0.038482556757570764 -0.052907820479799021
leaf_weight=3.336931474506855 2.3544030785560608
leaf_count=21 27
internal_value=0
internal_weight=0
internal_count=48
shrinkage=0.1


Tree=99
num_leaves=2
num_cat=0
split_feature=13
split_gain=1.03244
threshold=1.6650390625000002
decision_type=2
left_child=-1
right_child=-2
leaf_value=0.037346197357770013 -0.052624902233160679
leaf_weight=3.025945857167244 2.2047395668923855
leaf_count=21 27
internal_value=0
internal_weight=0
internal_count=48
shrinkage=0.1


Tree=100
num_leaves=2
num_cat=0
split_feature=2
split_gain=0.939338
threshold=0.0064210891723632821
decision_type=2
left_child=-1
right_child=-2
leaf_value=-0.053567995413503544 0.030859404889557764
leaf_weight=2.0840653851628304 3.5842350274324417
leaf_count=24 24
internal_value=0
internal_weight=0
internal_count=48
shrinkage=0.1


Tree=101
num_leaves=2
num_cat=0
split_feature=5
split_gain=1.0734
threshold=2.5732421875000004
decision_type=2
left_child=-1
right_child=-2
leaf_value=-0.052529723435525269 0.038190508433706527
leaf_weight=2.2206345908343792 3.1604136601090431
leaf_count=28 20
internal_value=0
internal_weight=0
internal_count=48
shrinkage=0.1


Tree=102
num_leaves=2
num_cat=0
split_feature=1
split_gain=0.967003
threshold=2.5341796875000004
decision_type=2
left_child=-1
right_child=-2
leaf_value=0.037262145863903987 -0.052454703854050037
leaf_weight=2.839317437261343 2.082551546394825
leaf_count=21 27
internal_value=0
internal_weight=0
internal_count=48
shrinkage=0.1


Tree=103
num_leaves=2
num_cat=0
split_feature=19
split_gain=0.886265
threshold=0.36743164062500006
decision_type=2
left_child=-1
right_child=-2
leaf_value=-0.053041135031292465 0.031056558644445172
leaf_weight=1.9862673990428446 3.3950567096471786
leaf_count=27 21
internal_value=0
internal_weight=0
internal_count=48
shrinkage=0.1


Tree=104
num_leaves=2
num_cat=0
split_feature=13
split_gain=1.00464
threshold=1.8198242187500002
decision_type=2
left_child=-1
right_child=-2
leaf_value=-0.052589186942443744 0.037886118144218474
leaf_weight=2.0852230563759804 2.9830411225557327
leaf_count=27 21
internal_value=0
internal_weight=0
internal_count=48
shrinkage=0.1


Tree=105
num_leaves=2
num_cat=0
split_feature=23
split_gain=0.898182
threshold=0.13684082031250003
decision_type=2
left_child=-1
right_child=-2
leaf_value=0.036768957228078165 -0.052325543763769015
leaf_weight=2.7012111730873585 1.9471835680305956
leaf_count=21 27
internal_value=0
internal_weight=0
internal_count=48
shrinkage=0.1


Tree=106
num_leaves=2
num_cat=0
split_feature=22
split_gain=0.827871
threshold=-0.0084209442138671858
decision_type=2
left_child=-1
right_child=-2
leaf_value=0.030492348920513307 -0.053335823871769453
leaf_weight=3.2376704029738903 1.8519914001226423
leaf_count=24 24
internal_value=0
internal_weight=0
internal_count=48
shrinkage=0.1


Tree=107
num_leaves=2
num_cat=0
split_feature=4
split_gain=0.934859
threshold=-2.5751953124999996
decision_type=2
left_child=-1
right_child=-2
leaf_value=0.037520191235336786 -0.052417242277375875
leaf_weight=2.8115134313702583 1.9624933600425718
leaf_count=21 27
internal_value=0
internal_weight=0
internal_count=48
shrinkage=0.1


Tree=108
num_leaves=2
num_cat=0
split_feature=6
split_gain=0.835445
threshold=-0.11914062499999999
decision_type=2
left_child=-1
right_child=-2
leaf_value=-0.052171291157114399 0.036504550402804932
leaf_weight=1.8371815830469129 2.5194523744285107
leaf_count=27 21
internal_value=0
internal_weight=0
internal_count=48
shrinkage=0.1


Tree=109
num_leaves=2
num_cat=0
split_feature=2
split_gain=0.765001
threshold=0.0064210891723632821
decision_type=2
left_child=-1
right_child=-2
leaf_value=-0.053013330556817763 0.02996961145501012
leaf_weight=1.7444788999855516 3.0589076653122902
leaf_count=24 24
internal_value=0
internal_weight=0
internal_count=48
shrinkage=0.1


Tree=110
num_leaves=2
num_cat=0
split_feature=19
split_gain=0.890325
threshold=0.34606933593750006
decision_type=2
left_child=-1
right_child=-2
leaf_value=0.037768042675075511 -0.052308337252724393
leaf_weight=2.6904811635613441 1.8530733324587343
leaf_count=21 27
internal_value=0
internal_weight=0
internal_count=48
shrinkage=0.1


Tree=111
num_leaves=2
num_cat=0
split_feature=9
split_gain=0.777132
threshold=5.4511718750000009
decision_type=2
left_child=-1
right_child=-2
leaf_value=0.036018796731487127 -0.052094546021156519
leaf_weight=2.3987474404275417 1.7177145574241874
leaf_count=21 27
internal_value=0
internal_weight=0
internal_count=48
shrinkage=0.1


Tree=112
num_leaves=2
num_cat=0
split_feature=19
split_gain=0.716196
threshold=0.36743164062500006
decision_type=2
left_child=-1
right_child=-2
leaf_value=-0.052579677533097585 0.029926860438780425
leaf_weight=1.6632253006100652 2.8633423298597336
leaf_count=27 21
internal_value=0
internal_weight=0
internal_count=48
shrinkage=0.1


Tree=113
num_leaves=2
num_cat=0
split_feature=5
split_gain=0.822117
threshold=2.5732421875000004
decision_type=2
left_child=-1
right_child=-2
leaf_value=-0.05198769549617336 0.037177526747594974
leaf_weight=1.7358506172895429 2.5576591491699219
leaf_count=28 20
internal_value=0
internal_weight=0
internal_count=48
shrinkage=0.1


Tree=114
num_leaves=2
num_cat=0
split_feature=1
split_gain=0.731062
threshold=2.5341796875000004
decision_type=2
left_child=-1
right_child=-2
leaf_value=0.035993077390722793 -0.051906478269289194
leaf_weight=2.2843566164374356 1.6152363829314706
leaf_count=21 27
internal_value=0
internal_weight=0
internal_count=48
shrinkage=0.1


Tree=115
num_leaves=2
num_cat=0
split_feature=22
split_gain=0.672901
threshold=-0.0084209442138671858
decision_type=2
left_child=-1
right_child=-2
leaf_value=0.029588884141156003 -0.052828057861059
leaf_weight=2.7428788095712662 1.5507176406681535
leaf_count=24 24
internal_value=0
internal_weight=0
internal_count=48
shrinkage=0.1


Tree=116
num_leaves=2
num_cat=0
split_feature=13
split_gain=0.761345
threshold=1.8198242187500002
decision_type=2
left_child=-1
right_child=-2
leaf_value=-0.052047225426960088 0.036653996244548251
leaf_weight=1.6305144913494585 2.3802763298153877
leaf_count=27 21
internal_value=0
internal_weight=0
internal_count=48
shrinkage=0.1


Tree=117
num_leaves=2
num_cat=0
split_feature=13
split_gain=0.67602
threshold=1.6650390625000002
decision_type=2
left_child=-1
right_child=-2
leaf_value=0.035525090373520467 -0.051844218759718612
leaf_weight=2.1233987063169484 1.5192407295107839
leaf_count=21 27
internal_value=0
internal_weight=0
internal_count=48
shrinkage=0.1


Tree=118
num_leaves=2
num_cat=0
split_feature=2
split_gain=0.624221
threshold=0.0064210891723632821
decision_type=2
left_child=-1
right_child=-2
leaf_value=-0.052548228254074639 0.029164959501285583
leaf_weight=1.4593741875141857 2.6012223698198795
leaf_count=24 24
internal_value=0
internal_weight=0
internal_count=48
shrinkage=0.1


Tree=119
num_leaves=2
num_cat=0
split_feature=19
split_gain=0.726084
threshold=0.34606933593750006
decision_type=2
left_child=-1
right_child=-2
leaf_value=0.036947883053498234 -0.051941997586504751
leaf_weight=2.2778332605957989 1.5403376612812278
leaf_count=21 27
internal_value=0
internal_weight=0
internal_count=48
shrinkage=0.1


Tree=120
num_leaves=2
num_cat=0
split_feature=23
split_gain=0.638506
threshold=0.13684082031250003
decision_type=2
left_child=-1
right_child=-2
leaf_value=0.035621310867566355 -0.051745321557630002
leaf_weight=2.0082042366266255 1.433738052845001
leaf_count=21 27
internal_value=0
internal_weight=0
internal_count=48
shrinkage=0.1


Tree=121
num_leaves=2
num_cat=0
split_feature=19
split_gain=0.591296
threshold=0.36743164062500006
decision_type=2
left_child=-1
right_child=-2
leaf_value=-0.05219161963554092 0.029420709002625573
leaf_weight=1.3944899942725899 2.4430285543203354
leaf_count=27 21
internal_value=0
internal_weight=0
internal_count=48
shrinkage=0.1


Tree=122
num_leaves=2
num_cat=0
split_feature=4
split_gain=0.681084
threshold=-2.5751953124999996
decision_type=2
left_child=-1
right_child=-2
leaf_value=0.036888289883383822 -0.051810518939439956
leaf_weight=2.1390253081917767 1.4542520605027673
leaf_count=21 27
internal_value=0
internal_weight=0
internal_count=48
shrinkage=0.1


Tree=123
num_leaves=2
num_cat=0
split_feature=12
split_gain=0.600134
threshold=-1.9614257812499998
decision_type=2
left_child=-1
right_child=-2
leaf_value=-0.05161905582426194 0.035543832167534449
leaf_weight=1.3457652814686301 1.9125076644122598
leaf_count=27 21
internal_value=0
internal_weight=0
internal_count=48
shrinkage=0.1


Tree=124
num_leaves=2
num_cat=0
split_feature=23
split_gain=0.552813
threshold=0.14288330078125003
decision_type=2
left_child=-1
right_child=-2
leaf_value=-0.052140885021499529 0.029158294947790847
leaf_weight=1.3138456847518685 2.3015028852969408
leaf_count=24 24
internal_value=0
internal_weight=0
internal_count=48
shrinkage=0.1


Tree=125
num_leaves=2
num_cat=0
split_feature=5
split_gain=0.622758
threshold=2.5732421875000004
decision_type=2
left_child=-1
right_child=-2
leaf_value=-0.051569260176030952 0.036018297535459556
leaf_weight=1.35628067702055 2.0219959057867527
leaf_count=28 20
internal_value=0
internal_weight=0
internal_count=48
shrinkage=0.1


Tree=126
num_leaves=2
num_cat=0
split_feature=6
split_gain=0.55185
threshold=-0.11914062499999999
decision_type=2
left_child=-1
right_child=-2
leaf_value=-0.051509382010710959 0.034880222552436245
leaf_weight=1.2590194232761862 1.7917260043323038
leaf_count=27 21
internal_value=0
internal_weight=0
internal_count=48
shrinkage=0.1


Tree=127
num_leaves=2
num_cat=0
split_feature=22
split_gain=0.510076
threshold=-0.0084209442138671858
decision_type=2
left_child=-1
right_child=-2
leaf_value=0.028405301361076048 -0.052274071275192624
leaf_weight=2.1977159213274722 1.217882828786969
leaf_count=24 24
internal_value=0
internal_weight=0
internal_count=48
shrinkage=0.1


Tree=128
num_leaves=2
num_cat=0
split_feature=19
split_gain=0.592988
threshold=0.34606933593750006
decision_type=2
left_child=-1
right_child=-2
leaf_value=0.036248709386639169 -0.051635397472476433
leaf_weight=1.9209068901836874 1.2789283730089662
leaf_count=21 27
internal_value=0
internal_weight=0
internal_count=48
shrinkage=0.1


Tree=129
num_leaves=2
num_cat=0
split_feature=23
split_gain=0.519378
threshold=0.13684082031250003
decision_type=2
left_child=-1
right_child=-2
leaf_value=0.034879229201617616 -0.051477834104352062
leaf_weight=1.6846675761044028 1.1872664559632538
leaf_count=21 27
internal_value=0
internal_weight=0
internal_count=48
shrinkage=0.1


Tree=130
num_leaves=2
num_cat=0
split_feature=19
split_gain=0.481601
threshold=0.36743164062500006
decision_type=2
left_child=-1
right_child=-2
leaf_value=-0.0518811918024005 0.028604278178589237
leaf_weight=1.1665236391127112 2.0498883835971355
leaf_count=27 21
internal_value=0
internal_weight=0
internal_count=48
shrinkage=0.1


Tree=131
num_leaves=2
num_cat=0
split_feature=13
split_gain=0.560311
threshold=1.8198242187500002
decision_type=2
left_child=-1
right_child=-2
leaf_value=-0.051535966010810765 0.036290695568991692
leaf_weight=1.2052104678004982 1.8284230306744573
leaf_count=27 21
internal_value=0
internal_weight=0
internal_count=48
shrinkage=0.1


Tree=132
num_leaves=2
num_cat=0
split_feature=9
split_gain=0.486503
threshold=5.4511718750000009
decision_type=2
left_child=-1
right_child=-2
leaf_value=0.034694480659583853 -0.051409715381888869
leaf_weight=1.598767835646868 1.1130396276712415
leaf_count=21 27
internal_value=0
internal_weight=0
internal_count=48
shrinkage=0.1


Tree=133
num_leaves=2
num_cat=0
split_feature=2
split_gain=0.450782
threshold=0.0064210891723632821
decision_type=2
left_child=-1
right_child=-2
leaf_value=-0.051956775954002971 0.028299969048467807
leaf_weight=1.0935033168643715 1.9440479092299936
leaf_count=24 24
internal_value=0
internal_weight=0
internal_count=48
shrinkage=0.1


Tree=134
num_leaves=2
num_cat=0
split_feature=4
split_gain=0.525998
threshold=-2.5751953124999996
decision_type=2
left_child=-1
right_child=-2
leaf_value=0.036254949393824287 -0.051438669798480455
leaf_weight=1.7132760845124724 1.1385149639099834
leaf_count=21 27
internal_value=0
internal_weight=0
internal_count=48
shrinkage=0.1


Tree=135
num_leaves=2
num_cat=0
split_feature=20
split_gain=0.45263
threshold=-0.33740234374999994
decision_type=2
left_child=-1
right_child=-2
leaf_value=-0.051302285124860542 0.034395518778772206
leaf_weight=1.0461581302806737 1.5000076517462728
leaf_count=27 21
internal_value=0
internal_weight=0
internal_count=48
shrinkage=0.1


Tree=136
num_leaves=2
num_cat=0
split_feature=22
split_gain=0.419405
threshold=-0.0084209442138671858
decision_type=2
left_child=-1
right_child=-2
leaf_value=0.027862477132837835 -0.05193016282065499
leaf_weight=1.8635228555649521 1.0188958588987587
leaf_count=24 24
internal_value=0
internal_weight=0
internal_count=48
shrinkage=0.1


Tree=137
num_leaves=2
num_cat=0
split_feature=19
split_gain=0.485361
threshold=0.34606933593750006
decision_type=2
left_child=-1
right_child=-2
leaf_value=0.035611762419723608 -0.051361514592208862
leaf_weight=1.6190305426716807 1.0628717662766574
leaf_count=21 27
internal_value=0
internal_weight=0
internal_count=48
shrinkage=0.1


Tree=138
num_leaves=2
num_cat=0
split_feature=13
split_gain=0.426061
threshold=1.6650390625000002
decision_type=2
left_child=-1
right_child=-2
leaf_value=0.034425132617763227 -0.051245241593094827
leaf_weight=1.4094458669424059 0.98704925272613764
leaf_count=21 27
internal_value=0
internal_weight=0
internal_count=48
shrinkage=0.1


Tree=139
num_leaves=2
num_cat=0
split_feature=19
split_gain=0.395061
threshold=0.36743164062500006
decision_type=2
left_child=-1
right_child=-2
leaf_value=-0.051596853567019776 0.027980933916102881
leaf_weight=0.97668773215264126 1.7268717624247072
leaf_count=27 21
internal_value=0
internal_weight=0
internal_count=48
shrinkage=0.1


Tree=140
num_leaves=2
num_cat=0
split_feature=7
split_gain=0.461399
threshold=0.87695312500000011
decision_type=2
left_child=-1
right_child=-2
leaf_value=-0.05123694004140527 0.035822461756161932
leaf_weight=1.0026636542752387 1.54956304654479
leaf_count=27 21
internal_value=0
internal_weight=0
internal_count=48
shrinkage=0.1


Tree=141
num_leaves=2
num_cat=0
split_feature=1
split_gain=0.398678
threshold=2.5341796875000004
decision_type=2
left_child=-1
right_child=-2
leaf_value=0.034214320251599886 -0.051128849094567955
leaf_weight=1.3420401122421028 0.92441345285624243
leaf_count=21 27
internal_value=0
internal_weight=0
internal_count=48
shrinkage=0.1


Tree=142
num_leaves=2
num_cat=0
split_feature=2
split_gain=0.372088
threshold=0.0064210891723632821
decision_type=2
left_child=-1
right_child=-2
leaf_value=-0.051656771212259804 0.027855328182514856
leaf_weight=0.91402846481651101 1.6527520827949045
leaf_count=24 24
internal_value=0
internal_weight=0
internal_count=48
shrinkage=0.1


Tree=143
num_leaves=2
num_cat=0
split_feature=9
split_gain=0.425782
threshold=5.8457031250000009
decision_type=2
left_child=-1
right_child=-2
leaf_value=-0.051183106246850435 0.035305478133134796
leaf_weight=0.94230533204972766 1.4375992324203251
leaf_count=27 21
internal_value=0
internal_weight=0
internal_count=48
shrinkage=0.1


Tree=144
num_leaves=2
num_cat=0
split_feature=8
split_gain=0.372329
threshold=-2.5673828124999996
decision_type=2
left_child=-1
right_child=-2
leaf_value=-0.051122143179053975 0.034036921959713903
leaf_weight=0.87086979113519214 1.2508127335458992
leaf_count=27 21
internal_value=0
internal_weight=0
internal_count=48
shrinkage=0.1


Tree=145
num_leaves=2
num_cat=0
split_feature=23
split_gain=0.345164
threshold=0.14288330078125003
decision_type=2
left_child=-1
right_child=-2
leaf_value=-0.05141858758364598 0.027471487546457275
leaf_weight=0.85889163054525886 1.5654191011562941
leaf_count=24 24
internal_value=0
internal_weight=0
internal_count=48
shrinkage=0.1


Tree=146
num_leaves=2
num_cat=0
split_feature=5
split_gain=0.404375
threshold=2.5732421875000004
decision_type=2
left_child=-1
right_child=-2
leaf_value=-0.051060640813600268 0.035547295766775934
leaf_weight=0.89041140675544772 1.366362579166889
leaf_count=28 20
internal_value=0
internal_weight=0
internal_count=48
shrinkage=0.1


Tree=147
num_leaves=2
num_cat=0
split_feature=6
split_gain=0.34539
threshold=-0.11914062499999999
decision_type=2
left_child=-1
right_child=-2
leaf_value=-0.051023203070912029 0.033705317614805538
leaf_weight=0.81882113777101051 1.1665456704795358
leaf_count=27 21
internal_value=0
internal_weight=0
internal_count=48
shrinkage=0.1


Tree=148
num_leaves=2
num_cat=0
split_feature=19
split_gain=0.331278
threshold=0.36743164062500006
decision_type=2
left_child=-1
right_child=-2
leaf_value=-0.0513876407612378 0.027936723867720937
leaf_weight=0.81791432015597854 1.4775503315031526
leaf_count=27 21
internal_value=0
internal_weight=0
internal_count=48
shrinkage=0.1


Tree=149
num_leaves=2
num_cat=0
split_feature=19
split_gain=0.381056
threshold=0.34606933593750006
decision_type=2
left_child=-1
right_child=-2
leaf_value=0.035481251268069974 -0.0511030114996745
leaf_weight=1.2953886277973654 0.83652902580797661
leaf_count=21 27
internal_value=0
internal_weight=0
internal_count=48
shrinkage=0.1


Tree=150
num_leaves=2
num_cat=0
split_feature=20
split_gain=0.328212
threshold=-0.33740234374999994
decision_type=2
left_child=-1
right_child=-2
leaf_value=-0.050990182855221923 0.033841464201012417
leaf_weight=0.76732259057462227 1.1243806798011062
leaf_count=27 21
internal_value=0
internal_weight=0
internal_count=48
shrinkage=0.1


Tree=151
num_leaves=2
num_cat=0
split_feature=22
split_gain=0.306134
threshold=-0.0084209442138671858
decision_type=2
left_child=-1
right_child=-2
leaf_value=0.027282907316290256 -0.051506604313525134
leaf_weight=1.395669646561146 0.76260388270020463
leaf_count=24 24
internal_value=0
internal_weight=0
internal_count=48
shrinkage=0.1


Tree=152
num_leaves=2
num_cat=0
split_feature=4
split_gain=0.3529
threshold=-2.5751953124999996
decision_type=2
left_child=-1
right_child=-2
leaf_value=0.035054918882111229 -0.051017318321652329
leaf_weight=1.2089572809636591 0.786075376905501
leaf_count=21 27
internal_value=0
internal_weight=0
internal_count=48
shrinkage=0.1


Tree=153
num_leaves=2
num_cat=0
split_feature=9
split_gain=0.304559
threshold=5.4511718750000009
decision_type=2
left_child=-1
right_child=-2
leaf_value=0.033478743509991256 -0.05095952175942671
leaf_weight=1.0480012483894823 0.7210659021511675
leaf_count=21 27
internal_value=0
internal_weight=0
internal_count=48
shrinkage=0.1


Tree=154
num_leaves=2
num_cat=0
split_feature=2
split_gain=0.284729
threshold=0.0064210891723632821
decision_type=2
left_child=-1
right_child=-2
leaf_value=-0.051313846315380288 0.02696671591682355
leaf_weight=0.71862734202295575 1.3147055972367523
leaf_count=24 24
internal_value=0
internal_weight=0
internal_count=48
shrinkage=0.1


Tree=155
num_leaves=2
num_cat=0
split_feature=13
split_gain=0.335013
threshold=1.8198242187500002
decision_type=2
left_child=-1
right_child=-2
leaf_value=-0.050974380005075294 0.035177697958878575
leaf_weight=0.73931210581213247 1.1589054744690654
leaf_count=27 21
internal_value=0
internal_weight=0
internal_count=48
shrinkage=0.1


Tree=156
num_leaves=2
num_cat=0
split_feature=6
split_gain=0.281672
threshold=-0.11914062499999999
decision_type=2
left_child=-1
right_child=-2
leaf_value=-0.050862305898557364 0.033033161885535081
leaf_weight=0.6769008245319128 0.97896360047161579
leaf_count=27 21
internal_value=0
internal_weight=0
internal_count=48
shrinkage=0.1


Tree=157
num_leaves=2
num_cat=0
split_feature=19
split_gain=0.274504
threshold=0.36743164062500006
decision_type=2
left_child=-1
right_child=-2
leaf_value=-0.051178998102571996 0.027581083207511178
leaf_weight=0.68528262991458189 1.2491985186934469
leaf_count=27 21
internal_value=0
internal_weight=0
internal_count=48
shrinkage=0.1


Tree=158
num_leaves=2
num_cat=0
split_feature=5
split_gain=0.313635
threshold=2.5732421875000004
decision_type=2
left_child=-1
right_child=-2
leaf_value=-0.050845275635212975 0.035060636321929621
leaf_weight=0.69724516291171323 1.0883979965001342
leaf_count=28 20
internal_value=0
internal_weight=0
internal_count=48
shrinkage=0.1


Tree=159
num_leaves=2
num_cat=0
split_feature=23
split_gain=0.269751
threshold=0.13684082031250003
decision_type=2
left_child=-1
right_child=-2
leaf_value=0.033516510075784496 -0.05084499577319071
leaf_weight=0.93012941628694523 0.63971826108172536
leaf_count=21 27
internal_value=0
internal_weight=0
internal_count=48
shrinkage=0.1


Tree=160
num_leaves=2
num_cat=0
split_feature=22
split_gain=0.254827
threshold=-0.0084209442138671858
decision_type=2
left_child=-1
right_child=-2
leaf_value=0.027061121760100872 -0.051278052165015797
leaf_weight=1.1886333888396619 0.63815817330032598
leaf_count=24 24
internal_value=0
internal_weight=0
internal_count=48
shrinkage=0.1


Tree=161
num_leaves=2
num_cat=0
split_feature=19
split_gain=0.294214
threshold=0.34606933593750006
decision_type=2
left_child=-1
right_child=-2
leaf_value=0.034989428080719719 -0.050887022530887893
leaf_weight=1.0122219938784836 0.65846912562847149
leaf_count=21 27
internal_value=0
internal_weight=0
internal_count=48
shrinkage=0.1


Tree=162
num_leaves=2
num_cat=0
split_feature=13
split_gain=0.250267
threshold=1.6650390625000002
decision_type=2
left_child=-1
right_child=-2
leaf_value=0.033071369144773086 -0.050791157188696423
leaf_weight=0.87830356322228909 0.59822761593386531
leaf_count=21 27
internal_value=0
internal_weight=0
internal_count=48
shrinkage=0.1


Tree=163
num_leaves=2
num_cat=0
split_feature=19
split_gain=0.235269
threshold=0.36743164062500006
decision_type=2
left_child=-1
right_child=-2
leaf_value=-0.051036697742824821 0.026592400861924121
leaf_weight=0.60246662655845296 1.1091355439275501
leaf_count=27 21
internal_value=0
internal_weight=0
internal_count=48
shrinkage=0.1


Tree=164
num_leaves=2
num_cat=0
split_feature=4
split_gain=0.276809
threshold=-2.5751953124999996
decision_type=2
left_child=-1
right_child=-2
leaf_value=0.03484247470049423 -0.050813026289996427
leaf_weight=0.97304072417318821 0.61621689004823565
leaf_count=21 27
internal_value=0
internal_weight=0
internal_count=48
shrinkage=0.1


Tree=165
num_leaves=2
num_cat=0
split_feature=12
split_gain=0.238712
threshold=-1.9614257812499998
decision_type=2
left_child=-1
right_child=-2
leaf_value=-0.050740575963832406 0.03343076813687855
leaf_weight=0.56509535713121295 0.83450182061642397
leaf_count=27 21
internal_value=0
internal_weight=0
internal_count=48
shrinkage=0.1


Tree=166
num_leaves=2
num_cat=0
split_feature=2
split_gain=0.226704
threshold=0.0064210891723632821
decision_type=2
left_child=-1
right_child=-2
leaf_value=-0.051082343862214323 0.027104196517791414
leaf_weight=0.57298454502597451 1.0512160956859586
leaf_count=24 24
internal_value=0
internal_weight=0
internal_count=48
shrinkage=0.1


Tree=167
num_leaves=2
num_cat=0
split_feature=13
split_gain=0.254917
threshold=1.8198242187500002
decision_type=2
left_child=-1
right_child=-2
leaf_value=-0.050778574140153049 0.034255670262201311
leaf_weight=0.57843249104917049 0.90274778194725525
leaf_count=27 21
internal_value=0
internal_weight=0
internal_count=48
shrinkage=0.1


Tree=168
num_leaves=2
num_cat=0
split_feature=20
split_gain=0.22161
threshold=-0.33740234374999994
decision_type=2
left_child=-1
right_child=-2
leaf_value=-0.050719524408253093 0.033075009270901456
leaf_weight=0.53076900588348508 0.77860087621957053
leaf_count=27 21
internal_value=0
internal_weight=0
internal_count=48
shrinkage=0.1


Tree=169
num_leaves=2
num_cat=0
split_feature=22
split_gain=0.210861
threshold=-0.0084209442138671858
decision_type=2
left_child=-1
right_child=-2
leaf_value=0.026680715750211081 -0.051083665550590941
leaf_weight=1.0053168227896092 0.5338464379310609
leaf_count=24 24
internal_value=0
internal_weight=0
internal_count=48
shrinkage=0.1


Tree=170
num_leaves=2
num_cat=0
split_feature=19
split_gain=0.242497
threshold=0.34606933593750006
decision_type=2
left_child=-1
right_child=-2
leaf_value=0.034564142671516286 -0.050742140326829679
leaf_weight=0.85088298097252835 0.54774315003305685
leaf_count=21 27
internal_value=0
internal_weight=0
internal_count=48
shrinkage=0.1


Tree=171
num_leaves=2
num_cat=0
split_feature=8
split_gain=0.206275
threshold=-2.5673828124999996
decision_type=2
left_child=-1
right_child=-2
leaf_value=-0.050683187781724794 0.032725559785106322
leaf_weight=0.49711376521736383 0.73471539560705423
leaf_count=27 21
internal_value=0
internal_weight=0
internal_count=48
shrinkage=0.1


Tree=172
num_leaves=2
num_cat=0
split_feature=19
split_gain=0.195777
threshold=0.36743164062500006
decision_type=2
left_child=-1
right_child=-2
leaf_value=-0.050882331258072358 0.02634184481540135
leaf_weight=0.50544480653479695 0.93663320876657952
leaf_count=27 21
internal_value=0
internal_weight=0
internal_count=48
shrinkage=0.1


Tree=173
num_leaves=2
num_cat=0
split_feature=5
split_gain=0.231019
threshold=2.5732421875000004
decision_type=2
left_child=-1
right_child=-2
leaf_value=-0.050640832560362725 0.034841822018587626
leaf_weight=0.51681990781798959 0.81422524526715279
leaf_count=28 20
internal_value=0
internal_weight=0
internal_count=48
shrinkage=0.1


Tree=174
num_leaves=2
num_cat=0
split_feature=1
split_gain=0.196567
threshold=2.5341796875000004
decision_type=2
left_child=-1
right_child=-2
leaf_value=0.033054449512837397 -0.050617643057574949
leaf_weight=0.69934978801757097 0.46909978007897735
leaf_count=21 27
internal_value=0
internal_weight=0
internal_count=48
shrinkage=0.1


Tree=175
num_leaves=2
num_cat=0
split_feature=2
split_gain=0.187049
threshold=0.0064210891723632821
decision_type=2
left_child=-1
right_child=-2
leaf_value=-0.050916514974802887 0.026638008018058636
leaf_weight=0.47895745281130081 0.8867473416030407
leaf_count=24 24
internal_value=0
internal_weight=0
internal_count=48
shrinkage=0.1


Tree=176
num_leaves=2
num_cat=0
split_feature=4
split_gain=0.212035
threshold=-2.5751953124999996
decision_type=2
left_child=-1
right_child=-2
leaf_value=0.03411351972094117 -0.050650271520294436
leaf_weight=0.75823725201189507 0.48316379310563207
leaf_count=21 27
internal_value=0
internal_weight=0
internal_count=48
shrinkage=0.1


Tree=177
num_leaves=2
num_cat=0
split_feature=6
split_gain=0.181482
threshold=-0.11914062499999999
decision_type=2
left_child=-1
right_child=-2
leaf_value=-0.050588882591069917 0.032474451876828923
leaf_weight=0.43824865901842713 0.65791135746985685
leaf_count=27 21
internal_value=0
internal_weight=0
internal_count=48
shrinkage=0.1


Tree=178
num_leaves=2
num_cat=0
split_feature=23
split_gain=0.174226
threshold=0.14288330078125003
decision_type=2
left_child=-1
right_child=-2
leaf_value=-0.050788972777042696 0.026341779605209881
leaf_weight=0.45102460123598576 0.83511324133723963
leaf_count=24 24
internal_value=0
internal_weight=0
internal_count=48
shrinkage=0.1


Tree=179
num_leaves=2
num_cat=0
split_feature=19
split_gain=0.20166
threshold=0.34606933593750006
decision_type=2
left_child=-1
right_child=-2
leaf_value=0.034332091758630598 -0.050629793756458055
leaf_weight=0.72195047605782736 0.45570329297333961
leaf_count=21 27
internal_value=0
internal_weight=0
internal_count=48
shrinkage=0.1


Tree=180
num_leaves=2
num_cat=0
split_feature=23
split_gain=0.172097
threshold=0.13684082031250003
decision_type=2
left_child=-1
right_child=-2
leaf_value=0.032714425521116079 -0.050581373271944299
leaf_weight=0.61691253539174795 0.41483946051448578
leaf_count=21 27
internal_value=0
internal_weight=0
internal_count=48
shrinkage=0.1


Tree=181
num_leaves=2
num_cat=0
split_feature=19
split_gain=0.162097
threshold=0.36743164062500006
decision_type=2
left_child=-1
right_child=-2
leaf_value=-0.050769683524714983 0.025961882232285745
leaf_weight=0.42384454421699047 0.78562412224709988
leaf_count=27 21
internal_value=0
internal_weight=0
internal_count=48
shrinkage=0.1


Tree=182
num_leaves=2
num_cat=0
split_feature=13
split_gain=0.190389
threshold=1.8198242187500002
decision_type=2
left_child=-1
right_child=-2
leaf_value=-0.050589940736560195 0.034333008209508714
leaf_weight=0.4285522978752852 0.68749638367444277
leaf_count=27 21
internal_value=0
internal_weight=0
internal_count=48
shrinkage=0.1


Tree=183
num_leaves=2
num_cat=0
split_feature=9
split_gain=0.162822
threshold=5.4511718750000009
decision_type=2
left_child=-1
right_child=-2
leaf_value=0.03281924599225957 -0.050566757716074218
leaf_weight=0.5849818391725421 0.39047576766461134
leaf_count=21 27
internal_value=0
internal_weight=0
internal_count=48
shrinkage=0.1


Tree=184
num_leaves=2
num_cat=0
split_feature=22
split_gain=0.153525
threshold=-0.0084209442138671858
decision_type=2
left_child=-1
right_child=-2
leaf_value=0.02600078095584344 -0.050845748864275876
leaf_weight=0.74171813763678063 0.40027205087244511
leaf_count=24 24
internal_value=0
internal_weight=0
internal_count=48
shrinkage=0.1


Tree=185
num_leaves=2
num_cat=0
split_feature=5
split_gain=0.179316
threshold=2.5732421875000004
decision_type=2
left_child=-1
right_child=-2
leaf_value=-0.050512670238675964 0.034395357805014036
leaf_weight=0.40572983585298061 0.64275563135743141
leaf_count=28 20
internal_value=0
internal_weight=0
internal_count=48
shrinkage=0.1


Tree=186
num_leaves=2
num_cat=0
split_feature=13
split_gain=0.150831
threshold=1.6650390625000002
decision_type=2
left_child=-1
right_child=-2
leaf_value=0.032415423993933636 -0.050520156659288301
leaf_weight=0.54574886709451675 0.36657792306505138
leaf_count=21 27
internal_value=0
internal_weight=0
internal_count=48
shrinkage=0.1


Tree=187
num_leaves=2
num_cat=0
split_feature=2
split_gain=0.144463
threshold=0.0064210891723632821
decision_type=2
left_child=-1
right_child=-2
leaf_value=-0.050726994732914171 0.025966966488516388
leaf_weight=0.37654565251432359 0.70627209916710842
leaf_count=24 24
internal_value=0
internal_weight=0
internal_count=48
shrinkage=0.1


Tree=188
num_leaves=2
num_cat=0
split_feature=19
split_gain=0.1674
threshold=0.34606933593750006
decision_type=2
left_child=-1
right_child=-2
leaf_value=0.034052383144363083 -0.050534001581296631
leaf_weight=0.60996135696768761 0.37955551082268357
leaf_count=21 27
internal_value=0
internal_weight=0
internal_count=48
shrinkage=0.1


Tree=189
num_leaves=2
num_cat=0
split_feature=23
split_gain=0.142117
threshold=0.13684082031250003
decision_type=2
left_child=-1
right_child=-2
leaf_value=0.032397324511338629 -0.050493657655957092
leaf_weight=0.51703558675944805 0.34475988452322781
leaf_count=21 27
internal_value=0
internal_weight=0
internal_count=48
shrinkage=0.1


Tree=190
num_leaves=2
num_cat=0
split_feature=19
split_gain=0.135969
threshold=0.36743164062500006
decision_type=2
left_child=-1
right_child=-2
leaf_value=-0.050655063781355071 0.025914074777670732
leaf_weight=0.3557625194080174 0.66621065884828568
leaf_count=27 21
internal_value=0
internal_weight=0
internal_count=48
shrinkage=0.1


Tree=191
num_leaves=2
num_cat=0
split_feature=4
split_gain=0.15829
threshold=-2.5751953124999996
decision_type=2
left_child=-1
right_child=-2
leaf_value=0.034199168728413186 -0.050494214430057111
leaf_weight=0.5718991095200181 0.35932662314735359
leaf_count=21 27
internal_value=0
internal_weight=0
internal_count=48
shrinkage=0.1


Tree=192
num_leaves=2
num_cat=0
split_feature=12
split_gain=0.134404
threshold=-1.9614257812499998
decision_type=2
left_child=-1
right_child=-2
leaf_value=-0.050454770464885904 0.032456473716693843
leaf_weight=0.32386524090543389 0.49335559364408255
leaf_count=27 21
internal_value=0
internal_weight=0
internal_count=48
shrinkage=0.1


Tree=193
num_leaves=2
num_cat=0
split_feature=22
split_gain=0.127619
threshold=-0.0084209442138671858
decision_type=2
left_child=-1
right_child=-2
leaf_value=0.025724971668917324 -0.050716624164958105
leaf_weight=0.62749734101817012 0.33499915106222034
leaf_count=24 24
internal_value=0
internal_weight=0
internal_count=48
shrinkage=0.1


Tree=194
num_leaves=2
num_cat=0
split_feature=5
split_gain=0.14668
threshold=2.5732421875000004
decision_type=2
left_child=-1
right_child=-2
leaf_value=-0.050431005112082754 0.033730490212182211
leaf_weight=0.33661709586158395 0.5381355881690979
leaf_count=28 20
internal_value=0
internal_weight=0
internal_count=48
shrinkage=0.1


Tree=195
num_leaves=2
num_cat=0
split_feature=20
split_gain=0.124692
threshold=-0.33740234374999994
decision_type=2
left_child=-1
right_child=-2
leaf_value=-0.050441114807002731 0.032066937732703596
leaf_weight=0.30419622058980167 0.4603734477423132
leaf_count=27 21
internal_value=0
internal_weight=0
internal_count=48
shrinkage=0.1


Tree=196
num_leaves=2
num_cat=0
split_feature=2
split_gain=0.119404
threshold=0.0064210891723632821
decision_type=2
left_child=-1
right_child=-2
leaf_value=-0.050615745958915062 0.025529608066612981
leaf_weight=0.314922348363325 0.595059416256845
leaf_count=24 24
internal_value=0
internal_weight=0
internal_count=48
shrinkage=0.1


Tree=197
num_leaves=2
num_cat=0
split_feature=13
split_gain=0.13983
threshold=1.8198242187500002
decision_type=2
left_child=-1
right_child=-2
leaf_value=-0.050455263517341309 0.033999802354296296
leaf_weight=0.31803880142979324 0.51107231061905611
leaf_count=27 21
internal_value=0
internal_weight=0
internal_count=48
shrinkage=0.1


Tree=198
num_leaves=2
num_cat=0
split_feature=15
split_gain=0.116469
threshold=0.70043945312500011
decision_type=2
left_child=-1
right_child=-2
leaf_value=0.031899371324236328 -0.050420932454062588
leaf_weight=0.4286690354347229 0.28689310606569046
leaf_count=21 27
internal_value=0
internal_weight=0
internal_count=48
shrinkage=0.1


Tree=199
num_leaves=2
num_cat=0
split_feature=19
split_gain=0.113264
threshold=0.36743164062500006
decision_type=2
left_child=-1
right_child=-2
leaf_value=-0.050558116358819641 0.025669911797750695
leaf_weight=0.29886743891984224 0.56045130360871553
leaf_count=27 21
internal_value=0
internal_weight=0
internal_count=48
shrinkage=0.1


Tree=200
num_leaves=2
num_cat=0
split_feature=19
split_gain=0.132919
threshold=0.34606933593750006
decision_type=2
left_child=-1
right_child=-2
leaf_value=0.034184400586154497 -0.050431552292104935
leaf_weight=0.4869373794645071 0.3000319695565849
leaf_count=21 27
internal_value=0
internal_weight=0
internal_count=48
shrinkage=0.1


Tree=201
num_leaves=2
num_cat=0
split_feature=1
split_gain=0.111562
threshold=2.5341796875000004
decision_type=2
left_child=-1
right_child=-2
leaf_value=0.032267307206359667 -0.050379726721849573
leaf_weight=0.41347345663234591 0.26997223030775785
leaf_count=21 27
internal_value=0
internal_weight=0
internal_count=48
shrinkage=0.1


Tree=202
num_leaves=2
num_cat=0
split_feature=23
split_gain=0.1068
threshold=0.14288330078125003
decision_type=2
left_child=-1
right_child=-2
leaf_value=-0.050519008228274001 0.025652344811871272
leaf_weight=0.28242811025120318 0.5285618242342025
leaf_count=24 24
internal_value=0
internal_weight=0
internal_count=48
shrinkage=0.1


Tree=203
num_leaves=2
num_cat=0
split_feature=4
split_gain=0.12301
threshold=-2.5751953124999996
decision_type=2
left_child=-1
right_child=-2
leaf_value=0.033767366949124994 -0.050396500414715523
leaf_weight=0.45045689027756447 0.28260202333331108
leaf_count=21 27
internal_value=0
internal_weight=0
internal_count=48
shrinkage=0.1


Tree=204
num_leaves=2
num_cat=0
split_feature=9
split_gain=0.103569
threshold=5.4511718750000009
decision_type=2
left_child=-1
right_child=-2
leaf_value=0.031893261263628327 -0.050394100589513414
leaf_weight=0.38524235691875214 0.25367073365487158
leaf_count=21 27
internal_value=0
internal_weight=0
internal_count=48
shrinkage=0.1


Tree=205
num_leaves=2
num_cat=0
split_feature=22
split_gain=0.0987077
threshold=-0.0084209442138671858
decision_type=2
left_child=-1
right_child=-2
leaf_value=0.025060084938688248 -0.050578883653278055
leaf_weight=0.5005590757355094 0.26326939277350903
leaf_count=24 24
internal_value=0
internal_weight=0
internal_count=48
shrinkage=0.1


Tree=206
num_leaves=2
num_cat=0
split_feature=5
split_gain=0.116124
threshold=2.5732421875000004
decision_type=2
left_child=-1
right_child=-2
leaf_value=-0.050345601718708083 0.033710866900941432
leaf_weight=0.26484178844839334 0.43316332064569002
leaf_count=28 20
internal_value=0
internal_weight=0
internal_count=48
shrinkage=0.1


Tree=207
num_leaves=2
num_cat=0
split_feature=13
split_gain=0.0963142
threshold=1.6650390625000002
decision_type=2
left_child=-1
right_child=-2
leaf_value=0.031585035601963518 -0.050360777263948733
leaf_weight=0.35922478884458542 0.23875925200991333
leaf_count=21 27
internal_value=0
internal_weight=0
internal_count=48
shrinkage=0.1


Tree=208
num_leaves=2
num_cat=0
split_feature=19
split_gain=0.094938
threshold=0.36743164062500006
decision_type=2
left_child=-1
right_child=-2
leaf_value=-0.050481059190307931 0.025572646287768293
leaf_weight=0.2511304582003504 0.47380442544817919
leaf_count=27 21
internal_value=0
internal_weight=0
internal_count=48
shrinkage=0.1


Tree=209
num_leaves=2
num_cat=0
split_feature=19
split_gain=0.110122
threshold=0.34606933593750006
decision_type=2
left_child=-1
right_child=-2
leaf_value=0.033843691052443829 -0.050367899099348093
leaf_weight=0.4090990680269897 0.2502893777564168
leaf_count=21 27
internal_value=0
internal_weight=0
internal_count=48
shrinkage=0.1


Tree=210
num_leaves=2
num_cat=0
split_feature=23
split_gain=0.0929828
threshold=0.13684082031250003
decision_type=2
left_child=-1
right_child=-2
leaf_value=0.032179857958477491 -0.050341917717827034
leaf_weight=0.34589785011485213 0.22559408668894321
leaf_count=21 27
internal_value=0
internal_weight=0
internal_count=48
shrinkage=0.1


Tree=211
num_leaves=2
num_cat=0
split_feature=2
split_gain=0.0894189
threshold=0.0064210891723632821
decision_type=2
left_child=-1
right_child=-2
leaf_value=-0.050476487126739501 0.025501791024315202
leaf_weight=0.23697542119771239 0.44723780453205114
leaf_count=24 24
internal_value=0
internal_weight=0
internal_count=48
shrinkage=0.1


Tree=212
num_leaves=2
num_cat=0
split_feature=13
split_gain=0.102559
threshold=1.8198242187500002
decision_type=2
left_child=-1
right_child=-2
leaf_value=-0.050346135542643479 0.033616191588324865
leaf_weight=0.23663297924213111 0.37766840634867543
leaf_count=27 21
internal_value=0
internal_weight=0
internal_count=48
shrinkage=0.1


Tree=213
num_leaves=2
num_cat=0
split_feature=6
split_gain=0.0863524
threshold=-0.11914062499999999
decision_type=2
left_child=-1
right_child=-2
leaf_value=-0.050313686208955356 0.03183452103646963
leaf_weight=0.21213071537204087 0.32249791687354445
leaf_count=27 21
internal_value=0
internal_weight=0
internal_count=48
shrinkage=0.1


Tree=214
num_leaves=2
num_cat=0
split_feature=19
split_gain=0.0826076
threshold=0.36743164062500006
decision_type=2
left_child=-1
right_child=-2
leaf_value=-0.05042919408822099 0.024952825914869275
leaf_weight=0.22097144881263373 0.42492182087153202
leaf_count=27 21
internal_value=0
internal_weight=0
internal_count=48
shrinkage=0.1


Tree=215
num_leaves=2
num_cat=0
split_feature=4
split_gain=0.0970662
threshold=-2.5751953124999996
decision_type=2
left_child=-1
right_child=-2
leaf_value=0.033665856148280007 -0.050318479213431133
leaf_weight=0.36070092162117362 0.22251033596694467
leaf_count=21 27
internal_value=0
internal_weight=0
internal_count=48
shrinkage=0.1


Tree=216
num_leaves=2
num_cat=0
split_feature=12
split_gain=0.0814522
threshold=-1.9614257812499998
decision_type=2
left_child=-1
right_child=-2
leaf_value=-0.050302814269040264 0.031767230717567214
leaf_weight=0.19880716328043488 0.30871241143904626
leaf_count=27 21
internal_value=0
internal_weight=0
internal_count=48
shrinkage=0.1


Tree=217
num_leaves=2
num_cat=0
split_feature=22
split_gain=0.0796704
threshold=-0.0084209442138671858
decision_type=2
left_child=-1
right_child=-2
leaf_value=0.025459488139570927 -0.050473874193994329
leaf_weight=0.40028302045539021 0.21101822901982811
leaf_count=24 24
internal_value=0
internal_weight=0
internal_count=48
shrinkage=0.1


Tree=218
num_leaves=2
num_cat=0
split_feature=19
split_gain=0.0897714
threshold=0.34606933593750006
decision_type=2
left_child=-1
right_child=-2
leaf_value=0.033152124841813645 -0.050308355288357823
leaf_weight=0.33661411935463548 0.20883102703373879
leaf_count=21 27
internal_value=0
internal_weight=0
internal_count=48
shrinkage=0.1


Tree=219
num_leaves=2
num_cat=0
split_feature=20
split_gain=0.0772681
threshold=-0.33740234374999994
decision_type=2
left_child=-1
right_child=-2
leaf_value=-0.050295796078950961 0.031989923386567511
leaf_weight=0.18832795217167583 0.28960062842816114
leaf_count=27 21
internal_value=0
internal_weight=0
internal_count=48
shrinkage=0.1


Tree=220
num_leaves=2
num_cat=0
split_feature=2
split_gain=0.0740357
threshold=0.0064210891723632821
decision_type=2
left_child=-1
right_child=-2
leaf_value=-0.05040361280303679 0.025071320477306969
leaf_weight=0.1984099643304944 0.37676982395350928
leaf_count=24 24
internal_value=0
internal_weight=0
internal_count=48
shrinkage=0.1


Tree=221
num_leaves=2
num_cat=0
split_feature=5
split_gain=0.0856775
threshold=2.5732421875000004
decision_type=2
left_child=-1
right_child=-2
leaf_value=-0.050264092783374049 0.033486140903131317
leaf_weight=0.19773081026505679 0.31956576276570559
leaf_count=28 20
internal_value=0
internal_weight=0
internal_count=48
shrinkage=0.1


Tree=222
num_leaves=2
num_cat=0
split_feature=8
split_gain=0.0717387
threshold=-2.5673828124999996
decision_type=2
left_child=-1
right_child=-2
leaf_value=-0.050284100591216123 0.031572587903873531
leaf_weight=0.17648931732401252 0.27217542473226786
leaf_count=27 21
internal_value=0
internal_weight=0
internal_count=48
shrinkage=0.1


Tree=223
num_leaves=2
num_cat=0
split_feature=3
split_gain=0.0688608
threshold=0.96118164062500011
decision_type=2
left_child=-1
right_child=-2
leaf_value=-0.050331988572668407 0.024714813178262449
leaf_weight=0.18648433836642653 0.35505387047305703
leaf_count=27 21
internal_value=0
internal_weight=0
internal_count=48
shrinkage=0.1


Tree=224
num_leaves=2
num_cat=0
split_feature=15
split_gain=0.0814088
threshold=0.73022460937500011
decision_type=2
left_child=-1
right_child=-2
leaf_value=-0.050266810589688286 0.033635275353606324
leaf_weight=0.18629425310064107 0.30494114919565618
leaf_count=27 21
internal_value=0
internal_weight=0
internal_count=48
shrinkage=0.1


Tree=225
num_leaves=2
num_cat=0
split_feature=1
split_gain=0.0664814
threshold=2.5341796875000004
decision_type=2
left_child=-1
right_child=-2
leaf_value=0.031194340179115255 -0.050251362750545751
leaf_weight=0.25219313660636544 0.16631691460497677
leaf_count=21 27
internal_value=0
internal_weight=0
internal_count=48
shrinkage=0.1


Tree=226
num_leaves=2
num_cat=0
split_feature=19
split_gain=0.066665
threshold=0.36743164062500006
decision_type=2
left_child=-1
right_child=-2
leaf_value=-0.050361998222016362 0.025325872924104528
leaf_weight=0.17768221779260784 0.33724823500961065
leaf_count=27 21
internal_value=0
internal_weight=0
internal_count=48
shrinkage=0.1


Tree=227
num_leaves=2
num_cat=0
split_feature=7
split_gain=0.0761883
threshold=0.87695312500000011
decision_type=2
left_child=-1
right_child=-2
leaf_value=-0.050244664777267849 0.033365077221354802
leaf_weight=0.17464115133043381 0.28990685963071883
leaf_count=27 21
internal_value=0
internal_weight=0
internal_count=48
shrinkage=0.1


Tree=228
num_leaves=2
num_cat=0
split_feature=13
split_gain=0.0627962
threshold=1.6650390625000002
decision_type=2
left_child=-1
right_child=-2
leaf_value=0.031177464912502291 -0.050253776460381677
leaf_weight=0.24093625228852036 0.15602664381731302
leaf_count=21 27
internal_value=0
internal_weight=0
internal_count=48
shrinkage=0.1


Tree=229
num_leaves=2
num_cat=0
split_feature=22
split_gain=0.0613394
threshold=-0.0084209442138671858
decision_type=2
left_child=-1
right_child=-2
leaf_value=0.024634183884575941 -0.050382970093640268
leaf_weight=0.32045479491353035 0.16518219688441604
leaf_count=24 24
internal_value=0
internal_weight=0
internal_count=48
shrinkage=0.1


Tree=230
num_leaves=2
num_cat=0
split_feature=19
split_gain=0.0721039
threshold=0.34606933593750006
decision_type=2
left_child=-1
right_child=-2
leaf_value=0.03350094900019715 -0.050253641461408732
leaf_weight=0.27100916998460889 0.16559378267265856
leaf_count=21 27
internal_value=0
internal_weight=0
internal_count=48
shrinkage=0.1


Tree=231
num_leaves=2
num_cat=0
split_feature=23
split_gain=0.0594734
threshold=0.13684082031250003
decision_type=2
left_child=-1
right_child=-2
leaf_value=0.03133813260478379 -0.050239519586957895
leaf_weight=0.22634525550529361 0.14767356670927256
leaf_count=21 27
internal_value=0
internal_weight=0
internal_count=48
shrinkage=0.1


Tree=232
num_leaves=2
num_cat=0
split_feature=2
split_gain=0.058296
threshold=0.0064210891723632821
decision_type=2
left_child=-1
right_child=-2
leaf_value=-0.050324123771286339 0.024805243704772433
leaf_weight=0.15705042262561619 0.30166153144091368
leaf_count=24 24
internal_value=0
internal_weight=0
internal_count=48
shrinkage=0.1


Tree=233
num_leaves=2
num_cat=0
split_feature=13
split_gain=0.0674806
threshold=1.8198242187500002
decision_type=2
left_child=-1
right_child=-2
leaf_value=-0.050236588945423627 0.033231333728757445
leaf_weight=0.15533713169861585 0.25728897843509912
leaf_count=27 21
internal_value=0
internal_weight=0
internal_count=48
shrinkage=0.1


Tree=234
num_leaves=2
num_cat=0
split_feature=9
split_gain=0.0554474
threshold=5.4511718750000009
decision_type=2
left_child=-1
right_child=-2
leaf_value=0.031085298184740276 -0.050237618298744235
leaf_weight=0.21095105586573479 0.13914140994893387
leaf_count=21 27
internal_value=0
internal_weight=0
internal_count=48
shrinkage=0.1


Tree=235
num_leaves=2
num_cat=0
split_feature=19
split_gain=0.0557253
threshold=0.36743164062500006
decision_type=2
left_child=-1
right_child=-2
leaf_value=-0.050308815612247863 0.025109758898309645
leaf_weight=0.14965482923435047 0.28367938892915845
leaf_count=27 21
internal_value=0
internal_weight=0
internal_count=48
shrinkage=0.1


Tree=236
num_leaves=2
num_cat=0
split_feature=4
split_gain=0.064566
threshold=-2.5751953124999996
decision_type=2
left_child=-1
right_child=-2
leaf_value=0.033590905469578221 -0.050217923990625551
leaf_weight=0.24494053027592599 0.14714430633466691
leaf_count=21 27
internal_value=0
internal_weight=0
internal_count=48
shrinkage=0.1


Tree=237
num_leaves=2
num_cat=0
split_feature=6
split_gain=0.0529645
threshold=-0.11914062499999999
decision_type=2
left_child=-1
right_child=-2
leaf_value=-0.050209753166733977 0.031427632621740857
leaf_weight=0.13138190656900406 0.20113188656978309
leaf_count=27 21
internal_value=0
internal_weight=0
internal_count=48
shrinkage=0.1


Tree=238
num_leaves=2
num_cat=0
split_feature=23
split_gain=0.0522028
threshold=0.14288330078125003
decision_type=2
left_child=-1
right_child=-2
leaf_value=-0.050272968297874254 0.024907350795644746
leaf_weight=0.14000294252764434 0.27141061215661466
leaf_count=24 24
internal_value=0
internal_weight=0
internal_count=48
shrinkage=0.1


Tree=239
num_leaves=2
num_cat=0
split_feature=5
split_gain=0.0601081
threshold=2.5732421875000004
decision_type=2
left_child=-1
right_child=-2
leaf_value=-0.050191939993546389 0.033339957108637533
leaf_weight=0.13916257652454078 0.22611420415341851
leaf_count=28 20
internal_value=0
internal_weight=0
internal_count=48
shrinkage=0.1


Tree=240
num_leaves=2
num_cat=0
split_feature=22
split_gain=0.049208
threshold=-0.0084209442138671858
decision_type=2
left_child=-1
right_child=-2
leaf_value=-0.050212187398494236 0.031068269862327511
leaf_weight=0.1235186289413832 0.18762603343930093
leaf_count=24 24
internal_value=0
internal_weight=0
internal_count=48
shrinkage=0.1


Tree=241
num_leaves=2
num_cat=0
split_feature=19
split_gain=0.0491315
threshold=0.36743164062500006
decision_type=2
left_child=-1
right_child=-2
leaf_value=-0.050278962441097419 0.024802919353118492
leaf_weight=0.13179904210846871 0.25729633262380958
leaf_count=27 21
internal_value=0
internal_weight=0
internal_count=48
shrinkage=0.1


Tree=242
num_leaves=2
num_cat=0
split_feature=19
split_gain=0.0572662
threshold=0.34606933593750006
decision_type=2
left_child=-1
right_child=-2
leaf_value=0.033576254059307115 -0.050205632684062876
leaf_weight=0.21499155275523665 0.13147265481529757
leaf_count=21 27
internal_value=0
internal_weight=0
internal_count=48
shrinkage=0.1


Tree=243
num_leaves=2
num_cat=0
split_feature=9
split_gain=0.0465836
threshold=5.4511718750000009
decision_type=2
left_child=-1
right_child=-2
leaf_value=0.031010549811833023 -0.050201339676777472
leaf_weight=0.18252656818367541 0.11521413177251816
leaf_count=21 27
internal_value=0
internal_weight=0
internal_count=48
shrinkage=0.1


Tree=244
num_leaves=2
num_cat=0
split_feature=2
split_gain=0.0459105
threshold=0.0064210891723632821
decision_type=2
left_child=-1
right_child=-2
leaf_value=-0.050265758786991591 0.024525125227021091
leaf_weight=0.12478817068040372 0.2397908684797585
leaf_count=24 24
internal_value=0
internal_weight=0
internal_count=48
shrinkage=0.1


Tree=245
num_leaves=2
num_cat=0
split_feature=4
split_gain=0.0526166
threshold=-2.5751953124999996
decision_type=2
left_child=-1
right_child=-2
leaf_value=0.032805860661605353 -0.05018468824607264
leaf_weight=0.20305884326808157 0.12247151246992873
leaf_count=21 27
internal_value=0
internal_weight=0
internal_count=48
shrinkage=0.1


Tree=246
num_leaves=2
num_cat=0
split_feature=20
split_gain=0.0440856
threshold=-0.33740234374999994
decision_type=2
left_child=-1
right_child=-2
leaf_value=-0.050182487607786479 0.031181455750656707
leaf_weight=0.10943137452704832 0.17011749907396734
leaf_count=27 21
internal_value=0
internal_weight=0
internal_count=48
shrinkage=0.1


Tree=247
num_leaves=2
num_cat=0
split_feature=22
split_gain=0.0440974
threshold=-0.0084209442138671858
decision_type=2
left_child=-1
right_child=-2
leaf_value=0.024918822050509968 -0.050285351594020644
leaf_weight=0.22799379471689463 0.1184932353789918
leaf_count=24 24
internal_value=0
internal_weight=0
internal_count=48
shrinkage=0.1


Tree=248
num_leaves=2
num_cat=0
split_feature=13
split_gain=0.0499231
threshold=1.8198242187500002
decision_type=2
left_child=-1
right_child=-2
leaf_value=-0.050181728653554837 0.032979491045295725
leaf_weight=0.1161285550915636 0.19077602005563679
leaf_count=27 21
internal_value=0
internal_weight=0
internal_count=48
shrinkage=0.1


Tree=249
num_leaves=2
num_cat=0
split_feature=6
split_gain=0.0411065
threshold=-0.11914062499999999
decision_type=2
left_child=-1
right_child=-2
leaf_value=-0.050171774857642917 0.030983268060610941
leaf_weight=0.10346413101069628 0.1573084641713649
leaf_count=27 21
internal_value=0
internal_weight=0
internal_count=48
shrinkage=0.1


Tree=250
num_leaves=2
num_cat=0
split_feature=19
split_gain=0.041071
threshold=0.36743164062500006
decision_type=2
left_child=-1
right_child=-2
leaf_value=-0.050238058662404453 0.024570954778427499
leaf_weight=0.11112199781928211 0.2161223441362381
leaf_count=27 21
internal_value=0
internal_weight=0
internal_count=48
shrinkage=0.1


Tree=251
num_leaves=2
num_cat=0
split_feature=19
split_gain=0.0480221
threshold=0.34606933593750006
decision_type=2
left_child=-1
right_child=-2
leaf_value=0.033459302525366268 -0.050172921553673339
leaf_weight=0.1826028130017221 0.11002933117561042
leaf_count=21 27
internal_value=0
internal_weight=0
internal_count=48
shrinkage=0.1


Tree=252
num_leaves=2
num_cat=0
split_feature=13
split_gain=0.0389161
threshold=1.6650390625000002
decision_type=2
left_child=-1
right_child=-2
leaf_value=0.030917776558406232 -0.050165120872488415
leaf_weight=0.15314237168058753 0.096487694943789407
leaf_count=21 27
internal_value=0
internal_weight=0
internal_count=48
shrinkage=0.1


Tree=253
num_leaves=2
num_cat=0
split_feature=22
split_gain=0.0383892
threshold=-0.0084209442138671858
decision_type=2
left_child=-1
right_child=-2
leaf_value=0.024283941815061053 -0.050253262309860186
leaf_weight=0.20331288571469489 0.10467081185197458
leaf_count=24 24
internal_value=0
internal_weight=0
internal_count=48
shrinkage=0.1


Tree=254
num_leaves=2
num_cat=0
split_feature=5
split_gain=0.0450786
threshold=2.5732421875000004
decision_type=2
left_child=-1
right_child=-2
leaf_value=-0.050146765526190296 0.0334213426291987
leaf_weight=0.10431317595066504 0.16933117271400988
leaf_count=28 20
internal_value=0
internal_weight=0
internal_count=48
shrinkage=0.1


Tree=255
num_leaves=2
num_cat=0
split_feature=1
split_gain=0.0367295
threshold=2.5341796875000004
decision_type=2
left_child=-1
right_child=-2
leaf_value=0.031041130213379006 -0.050151160423835411
leaf_weight=0.14200673450250181 0.091692673857323825
leaf_count=21 27
internal_value=0
internal_weight=0
internal_count=48
shrinkage=0.1


Tree=256
num_leaves=2
num_cat=0
split_feature=2
split_gain=0.0367853
threshold=0.0064210891723632821
decision_type=2
left_child=-1
right_child=-2
leaf_value=-0.050212593506549601 0.024652160629551848
leaf_weight=0.099455754563678042 0.19299043947830799
leaf_count=24 24
internal_value=0
internal_weight=0
internal_count=48
shrinkage=0.1


Tree=257
num_leaves=2
num_cat=0
split_feature=19
split_gain=0.0415865
threshold=0.34606933593750006
decision_type=2
left_child=-1
right_child=-2
leaf_value=0.032684827129295151 -0.050154785640545735
leaf_weight=0.16175663564354181 0.096904871868900955
leaf_count=21 27
internal_value=0
internal_weight=0
internal_count=48
shrinkage=0.1


Tree=258
num_leaves=2
num_cat=0
split_feature=21
split_gain=0.0345766
threshold=0.36938476562500006
decision_type=2
left_child=-1
right_child=-2
leaf_value=0.035455924648604829 -0.043975309479361263
leaf_weight=0.12048982456326485 0.10052336880471556
leaf_count=22 26
internal_value=0
internal_weight=0
internal_count=48
shrinkage=0.1


Tree=259
num_leaves=2
num_cat=0
split_feature=19
split_gain=0.0341224
threshold=0.36743164062500006
decision_type=2
left_child=-1
right_child=-2
leaf_value=-0.050203399692719364 0.02418016102836398
leaf_weight=0.093724191247019917 0.18033258500508964
leaf_count=27 21
internal_value=0
internal_weight=0
internal_count=48
shrinkage=0.1


Tree=260
num_leaves=2
num_cat=0
split_feature=4
split_gain=0.0398982
threshold=-2.5751953124999996
decision_type=2
left_child=-1
right_child=-2
leaf_value=0.03310915662526636 -0.050141221359139967
leaf_weight=0.15408209711313248 0.091905578621663167
leaf_count=21 27
internal_value=0
internal_weight=0
internal_count=48
shrinkage=0.1


Tree=261
num_leaves=2
num_cat=0
split_feature=8
split_gain=0.0329869
threshold=-2.5673828124999996
decision_type=2
left_child=-1
right_child=-2
leaf_value=-0.050145777862135692 0.031211236374891746
leaf_weight=0.081308765977155403 0.12875622627325356
leaf_count=27 21
internal_value=0
internal_weight=0
internal_count=48
shrinkage=0.1


Tree=262
num_leaves=2
num_cat=0
split_feature=23
split_gain=0.0322917
threshold=0.14288330078125003
decision_type=2
left_child=-1
right_child=-2
leaf_value=-0.050180933242632654 0.02426606578926209
leaf_weight=0.088462356827221811 0.17067213199334219
leaf_count=24 24
internal_value=0
internal_weight=0
internal_count=48
shrinkage=0.1


Tree=263
num_leaves=2
num_cat=0
split_feature=5
split_gain=0.0375115
threshold=2.5732421875000004
decision_type=2
left_child=-1
right_child=-2
leaf_value=-0.050124748051747436 0.033034135263429153
leaf_weight=0.087300863291602582 0.14325080765411258
leaf_count=28 20
internal_value=0
internal_weight=0
internal_count=48
shrinkage=0.1


Tree=264
num_leaves=2
num_cat=0
split_feature=23
split_gain=0.0308675
threshold=0.13684082031250003
decision_type=2
left_child=-1
right_child=-2
leaf_value=0.031066785436192575 -0.050133806668186676
leaf_weight=0.11975231347605586 0.076862952904775739
leaf_count=21 27
internal_value=0
internal_weight=0
internal_count=48
shrinkage=0.1


Tree=265
num_leaves=2
num_cat=0
split_feature=19
split_gain=0.0301533
threshold=0.36743164062500006
decision_type=2
left_child=-1
right_child=-2
leaf_value=-0.050183678609341476 0.023963736031574947
leaf_weight=0.082597210624953732 0.16323749837465584
leaf_count=27 21
internal_value=0
internal_weight=0
internal_count=48
shrinkage=0.1


Tree=266
num_leaves=2
num_cat=0
split_feature=13
split_gain=0.0357016
threshold=1.8198242187500002
decision_type=2
left_child=-1
right_child=-2
leaf_value=-0.050133998510228608 0.033260511154313381
leaf_weight=0.082624695089180022 0.13555627304594964
leaf_count=27 21
internal_value=0
internal_weight=0
internal_count=48
shrinkage=0.1


Tree=267
num_leaves=2
num_cat=0
split_feature=12
split_gain=0.0291166
threshold=-1.9614257812499998
decision_type=2
left_child=-1
right_child=-2
leaf_value=-0.0501257096325185 0.031005961202558038
leaf_weight=0.072174330387497307 0.11426574311917648
leaf_count=27 21
internal_value=0
internal_weight=0
internal_count=48
shrinkage=0.1


Tree=268
num_leaves=2
num_cat=0
split_feature=2
split_gain=0.0289852
threshold=0.0064210891723632821
decision_type=2
left_child=-1
right_child=-2
leaf_value=-0.050174038865940067 0.024384636355546621
leaf_weight=0.079021871148142964 0.15327998483553529
leaf_count=24 24
internal_value=0
internal_weight=0
internal_count=48
shrinkage=0.1


Tree=269
num_leaves=2
num_cat=0
split_feature=19
split_gain=0.0328856
threshold=0.34606933593750006
decision_type=2
left_child=-1
right_child=-2
leaf_value=0.032550318023341608 -0.050125689494307173
leaf_weight=0.12799121008720249 0.077088505087886006
leaf_count=21 27
internal_value=0
internal_weight=0
internal_count=48
shrinkage=0.1


Tree=270
num_leaves=2
num_cat=0
split_feature=20
split_gain=0.0274859
threshold=-0.33740234374999994
decision_type=2
left_child=-1
right_child=-2
leaf_value=-0.050120078793230383 0.030996112527030575
leaf_weight=0.067992107738973573 0.10832605615723878
leaf_count=27 21
internal_value=0
internal_weight=0
internal_count=48
shrinkage=0.1


Tree=271
num_leaves=2
num_cat=0
split_feature=22
split_gain=0.0273975
threshold=-0.0084209442138671858
decision_type=2
left_child=-1
right_child=-2
leaf_value=0.02437531897870307 -0.050187745486884122
leaf_weight=0.14377567847259343 0.074977702955948189
leaf_count=24 24
internal_value=0
internal_weight=0
internal_count=48
shrinkage=0.1


Tree=272
num_leaves=2
num_cat=0
split_feature=4
split_gain=0.0312464
threshold=-2.5751953124999996
decision_type=2
left_child=-1
right_child=-2
leaf_value=0.032726423137892112 -0.05011418752538991
leaf_weight=0.12113730190321804 0.072951865033246577
leaf_count=21 27
internal_value=0
internal_weight=0
internal_count=48
shrinkage=0.1


Tree=273
num_leaves=2
num_cat=0
split_feature=6
split_gain=0.0255904
threshold=-0.11914062499999999
decision_type=2
left_child=-1
right_child=-2
leaf_value=-0.050113246701812414 0.030693812046587016
leaf_weight=0.064109806000487879 0.10082433302886784
leaf_count=27 21
internal_value=0
internal_weight=0
internal_count=48
shrinkage=0.1


Tree=274
num_leaves=2
num_cat=0
split_feature=19
split_gain=0.0251504
threshold=0.36743164062500006
decision_type=2
left_child=-1
right_child=-2
leaf_value=-0.050157049569725887 0.02365589278165995
leaf_weight=0.069746302324347198 0.13651138450950384
leaf_count=27 21
internal_value=0
internal_weight=0
internal_count=48
shrinkage=0.1


Tree=275
num_leaves=2
num_cat=0
split_feature=5
split_gain=0.0300443
threshold=2.5732421875000004
decision_type=2
left_child=-1
right_child=-2
leaf_value=-0.050100377883120828 0.033182550708858831
leaf_weight=0.069121257402002811 0.11602599755860864
leaf_count=28 20
internal_value=0
internal_weight=0
internal_count=48
shrinkage=0.1


Tree=276
num_leaves=2
num_cat=0
split_feature=9
split_gain=0.0242137
threshold=5.4511718750000009
decision_type=2
left_child=-1
right_child=-2
leaf_value=0.030674686408425134 -0.050114966279382701
leaf_weight=0.096831982838921263 0.060137542808661237
leaf_count=21 27
internal_value=0
internal_weight=0
internal_count=48
shrinkage=0.1


Tree=277
num_leaves=2
num_cat=0
split_feature=3
split_gain=0.024264
threshold=0.96118164062500011
decision_type=2
left_child=-1
right_child=-2
leaf_value=-0.05013536227900435 0.02417452553308989
leaf_weight=0.066751487029250711 0.12858571554534137
leaf_count=27 21
internal_value=0
internal_weight=0
internal_count=48
shrinkage=0.1


Tree=278
num_leaves=2
num_cat=0
split_feature=13
split_gain=0.028069
threshold=1.8198242187500002
decision_type=2
left_child=-1
right_child=-2
leaf_value=-0.050108148028702559 0.032950784271994486
leaf_weight=0.065322686190484092 0.10788241901900621
leaf_count=27 21
internal_value=0
internal_weight=0
internal_count=48
shrinkage=0.1


Tree=279
num_leaves=2
num_cat=0
split_feature=22
split_gain=0.022767
threshold=-0.0084209442138671858
decision_type=2
left_child=-1
right_child=-2
leaf_value=-0.050106518681012228 0.030700509104170923
leaf_weight=0.057190076535334811 0.089323005551705137
leaf_count=24 24
internal_value=0
internal_weight=0
internal_count=48
shrinkage=0.1


Tree=280
num_leaves=2
num_cat=0
split_feature=2
split_gain=0.0229629
threshold=0.0064210891723632821
decision_type=2
left_child=-1
right_child=-2
leaf_value=-0.050139225297014395 0.024201432587501341
leaf_weight=0.062651304324390367 0.123367935186252
leaf_count=24 24
internal_value=0
internal_weight=0
internal_count=48
shrinkage=0.1


Tree=281
num_leaves=2
num_cat=0
split_feature=19
split_gain=0.0263938
threshold=0.34606933593750006
decision_type=2
left_child=-1
right_child=-2
leaf_value=0.032809005288226459 -0.050102104369749705
leaf_weight=0.10233989136759192 0.061449096130672842
leaf_count=21 27
internal_value=0
internal_weight=0
internal_count=48
shrinkage=0.1


Tree=282
num_leaves=2
num_cat=0
split_feature=13
split_gain=0.0216029
threshold=1.6650390625000002
decision_type=2
left_child=-1
right_child=-2
leaf_value=0.030854075785324273 -0.05010008705050676
leaf_weight=0.084551202016882598 0.054026591446017846
leaf_count=21 27
internal_value=0
internal_weight=0
internal_count=48
shrinkage=0.1


Tree=283
num_leaves=2
num_cat=0
split_feature=22
split_gain=0.0212487
threshold=-0.0084209442138671858
decision_type=2
left_child=-1
right_child=-2
leaf_value=0.023651752495971304 -0.050152534810285122
leaf_weight=0.11544921714812516 0.058916922425851226
leaf_count=24 24
internal_value=0
internal_weight=0
internal_count=48
shrinkage=0.1


Tree=284
num_leaves=2
num_cat=0
split_feature=4
split_gain=0.0250058
threshold=-2.5751953124999996
decision_type=2
left_child=-1
right_child=-2
leaf_value=0.032833163438316583 -0.050092051749355382
leaf_weight=0.098015462863259004 0.057811834616586566
leaf_count=21 27
internal_value=0
internal_weight=0
internal_count=48
shrinkage=0.1


Tree=285
num_leaves=2
num_cat=0
split_feature=1
split_gain=0.0199942
threshold=2.5341796875000004
decision_type=2
left_child=-1
right_child=-2
leaf_value=0.030362636671508736 -0.050088712812070529
leaf_weight=0.078888439806178212 0.050773452792782336
leaf_count=21 27
internal_value=0
internal_weight=0
internal_count=48
shrinkage=0.1


Tree=286
num_leaves=2
num_cat=0
split_feature=19
split_gain=0.0206325
threshold=0.36743164062500006
decision_type=2
left_child=-1
right_child=-2
leaf_value=-0.050132424351446193 0.024328977573000357
leaf_weight=0.056401433757855557 0.10937750013545156
leaf_count=27 21
internal_value=0
internal_weight=0
internal_count=48
shrinkage=0.1


Tree=287
num_leaves=2
num_cat=0
split_feature=5
split_gain=0.0238029
threshold=2.5732421875000004
decision_type=2
left_child=-1
right_child=-2
leaf_value=-0.050080902140419707 0.033056816723929912
leaf_weight=0.054833583446452401 0.092583901598118246
leaf_count=28 20
internal_value=0
internal_weight=0
internal_count=48
shrinkage=0.1


Tree=288
num_leaves=2
num_cat=0
split_feature=21
split_gain=0.0191679
threshold=0.36938476562500006
decision_type=2
left_child=-1
right_child=-2
leaf_value=0.035270162855566611 -0.043884438598431025
leaf_weight=0.067367704818025231 0.056043653879896738
leaf_count=22 26
internal_value=0
internal_weight=0
internal_count=48
shrinkage=0.1


Tree=289
num_leaves=2
num_cat=0
split_feature=2
split_gain=0.0190128
threshold=0.0064210891723632821
decision_type=2
left_child=-1
right_child=-2
leaf_value=-0.050117939051411681 0.0236967951206799
leaf_weight=0.052615233027609065 0.10360835073515771
leaf_count=24 24
internal_value=0
internal_weight=0
internal_count=48
shrinkage=0.1


Tree=290
num_leaves=2
num_cat=0
split_feature=13
split_gain=0.0223023
threshold=1.8198242187500002
decision_type=2
left_child=-1
right_child=-2
leaf_value=-0.050087325765717942 0.032861081330468743
leaf_weight=0.051705030200537294 0.08687852299772203
leaf_count=27 21
internal_value=0
internal_weight=0
internal_count=48
shrinkage=0.1


Tree=291
num_leaves=2
num_cat=0
split_feature=8
split_gain=0.0176231
threshold=-2.5673828124999996
decision_type=2
left_child=-1
right_child=-2
leaf_value=-0.050086200310072021 0.030046715706758955
leaf_weight=0.044863570525194518 0.070686107152141631
leaf_count=27 21
internal_value=0
internal_weight=0
internal_count=48
shrinkage=0.1


Tree=292
num_leaves=2
num_cat=0
split_feature=19
split_gain=0.0181052
threshold=0.36743164062500006
decision_type=2
left_child=-1
right_child=-2
leaf_value=-0.050118804034085668 0.023913755865918956
